{"learner":{"attributes":{"scikit_learn":"{\"_estimator_type\": \"classifier\"}"},"feature_names":["income","name_email_similarity","prev_address_months_count","current_address_months_count","customer_age","days_since_request","intended_balcon_amount","zip_count_4w","velocity_6h","velocity_24h","velocity_4w","bank_branch_count_8w","date_of_birth_distinct_emails_4w","credit_risk_score","email_is_free","phone_home_valid","phone_mobile_valid","bank_months_count","has_other_cards","proposed_credit_limit","foreign_request","session_length_in_minutes","keep_alive_session","device_distinct_emails_8w","month","account_id_is_NA","payment_type_is_NA","employment_status_is_NA","housing_status_is_NA","source_is_NA","device_os_is_NA","account_id_ID000060721","account_id_ID000309684","account_id_ID000363102","account_id_ID000412421","account_id_ID000558983","account_id_ID000622658","account_id_ID000686647","account_id_ID000768063","account_id_ID000921190","account_id_ID000967839","account_id_Other","payment_type_AA","payment_type_AB","payment_type_AC","payment_type_AD","payment_type_AE","employment_status_CA","employment_status_CB","employment_status_CC","employment_status_CD","employment_status_CE","employment_status_CF","employment_status_CG","housing_status_BA","housing_status_BB","housing_status_BC","housing_status_BD","housing_status_BE","housing_status_BF","housing_status_BG","source_INTERNET","source_TELEAPP","device_os_linux","device_os_macintosh","device_os_other","device_os_windows","device_os_x11"],"feature_types":["float","float","float","float","float","float","float","float","float","float","float","float","float","float","float","float","float","float","float","float","float","float","float","float","float","float","float","float","float","float","float","i","i","i","i","i","i","i","i","i","i","i","i","i","i","i","i","i","i","i","i","i","i","i","i","i","i","i","i","i","i","i","i","i","i","i","i","i"],"gradient_booster":{"model":{"gbtree_model_param":{"num_parallel_tree":"1","num_trees":"400"},"iteration_indptr":[0,1,2,3,4,5,6,7,8,9,10,11,12,13,14,15,16,17,18,19,20,21,22,23,24,25,26,27,28,29,30,31,32,33,34,35,36,37,38,39,40,41,42,43,44,45,46,47,48,49,50,51,52,53,54,55,56,57,58,59,60,61,62,63,64,65,66,67,68,69,70,71,72,73,74,75,76,77,78,79,80,81,82,83,84,85,86,87,88,89,90,91,92,93,94,95,96,97,98,99,100,101,102,103,104,105,106,107,108,109,110,111,112,113,114,115,116,117,118,119,120,121,122,123,124,125,126,127,128,129,130,131,132,133,134,135,136,137,138,139,140,141,142,143,144,145,146,147,148,149,150,151,152,153,154,155,156,157,158,159,160,161,162,163,164,165,166,167,168,169,170,171,172,173,174,175,176,177,178,179,180,181,182,183,184,185,186,187,188,189,190,191,192,193,194,195,196,197,198,199,200,201,202,203,204,205,206,207,208,209,210,211,212,213,214,215,216,217,218,219,220,221,222,223,224,225,226,227,228,229,230,231,232,233,234,235,236,237,238,239,240,241,242,243,244,245,246,247,248,249,250,251,252,253,254,255,256,257,258,259,260,261,262,263,264,265,266,267,268,269,270,271,272,273,274,275,276,277,278,279,280,281,282,283,284,285,286,287,288,289,290,291,292,293,294,295,296,297,298,299,300,301,302,303,304,305,306,307,308,309,310,311,312,313,314,315,316,317,318,319,320,321,322,323,324,325,326,327,328,329,330,331,332,333,334,335,336,337,338,339,340,341,342,343,344,345,346,347,348,349,350,351,352,353,354,355,356,357,358,359,360,361,362,363,364,365,366,367,368,369,370,371,372,373,374,375,376,377,378,379,380,381,382,383,384,385,386,387,388,389,390,391,392,393,394,395,396,397,398,399,400],"tree_info":[0,0,0,0,0,0,0,0,0,0,0,0,0,0,0,0,0,0,0,0,0,0,0,0,0,0,0,0,0,0,0,0,0,0,0,0,0,0,0,0,0,0,0,0,0,0,0,0,0,0,0,0,0,0,0,0,0,0,0,0,0,0,0,0,0,0,0,0,0,0,0,0,0,0,0,0,0,0,0,0,0,0,0,0,0,0,0,0,0,0,0,0,0,0,0,0,0,0,0,0,0,0,0,0,0,0,0,0,0,0,0,0,0,0,0,0,0,0,0,0,0,0,0,0,0,0,0,0,0,0,0,0,0,0,0,0,0,0,0,0,0,0,0,0,0,0,0,0,0,0,0,0,0,0,0,0,0,0,0,0,0,0,0,0,0,0,0,0,0,0,0,0,0,0,0,0,0,0,0,0,0,0,0,0,0,0,0,0,0,0,0,0,0,0,0,0,0,0,0,0,0,0,0,0,0,0,0,0,0,0,0,0,0,0,0,0,0,0,0,0,0,0,0,0,0,0,0,0,0,0,0,0,0,0,0,0,0,0,0,0,0,0,0,0,0,0,0,0,0,0,0,0,0,0,0,0,0,0,0,0,0,0,0,0,0,0,0,0,0,0,0,0,0,0,0,0,0,0,0,0,0,0,0,0,0,0,0,0,0,0,0,0,0,0,0,0,0,0,0,0,0,0,0,0,0,0,0,0,0,0,0,0,0,0,0,0,0,0,0,0,0,0,0,0,0,0,0,0,0,0,0,0,0,0,0,0,0,0,0,0,0,0,0,0,0,0,0,0,0,0,0,0,0,0,0,0,0,0,0,0,0,0,0,0,0,0,0,0,0,0,0,0,0,0,0,0,0,0,0,0,0,0,0,0,0,0,0,0,0,0,0,0,0,0,0,0,0,0,0,0],"trees":[{"base_weights":[-4.532945E-3,-5.829217E-1,7.726152E-1,-3.1621128E-1,-1.4971857E0,-6.420546E-2,1.0305135E0,1.0797632E-1,-7.8002286E-1,-1.5294118E0,1.0909091E0,-3.9377084E-1,7.806268E-1,1.1567568E0,-3.761194E-1,4.040506E-3,-5.422222E-3,-1.1111111E-2,-3.2825111E-3,-1.1300448E-2,-1.6804215E-2,1.8181818E-3,1.4666666E-2,1.2602739E-3,-7.434944E-3,1.2344497E-2,1.0958904E-3,1.2840943E-2,2.0408162E-3,2.7878787E-3,-9.885057E-3],"categories":[],"categories_nodes":[],"categories_segments":[],"categories_sizes":[],"default_left":[0,0,0,0,0,0,0,0,0,0,0,0,0,0,0,0,0,0,0,0,0,0,0,0,0,0,0,0,0,0,0],"id":0,"left_children":[1,3,5,7,9,11,13,15,17,19,21,23,25,27,29,-1,-1,-1,-1,-1,-1,-1,-1,-1,-1,-1,-1,-1,-1,-1,-1],"loss_changes":[1.3887117E3,4.3143475E2,2.8456372E2,2.7011414E2,3.5009216E1,8.7037544E1,1.7938928E2,1.3839105E2,9.771994E1,2.1937866E1,1.6121211E0,4.095004E1,2.658743E1,1.1195093E2,3.386405E1,0E0,0E0,0E0,0E0,0E0,0E0,0E0,0E0,0E0,0E0,0E0,0E0,0E0,0E0,0E0,0E0],"parents":[2147483647,0,0,1,1,2,2,3,3,4,4,5,5,6,6,7,7,8,8,9,9,10,10,11,11,12,12,13,13,14,14],"right_children":[2,4,6,8,10,12,14,16,18,20,22,24,26,28,30,-1,-1,-1,-1,-1,-1,-1,-1,-1,-1,-1,-1,-1,-1,-1,-1],"split_conditions":[1E0,9E0,-2.7210885E-1,1E0,1.2543104E0,3.922414E-1,1E0,1E0,2E-1,-3.188596E-1,-3.5981077E-1,-1.6933848E-1,1E0,1E0,1E0,4.040506E-3,-5.422222E-3,-1.1111111E-2,-3.2825111E-3,-1.1300448E-2,-1.6804215E-2,1.8181818E-3,1.4666666E-2,1.2602739E-3,-7.434944E-3,1.2344497E-2,1.0958904E-3,1.2840943E-2,2.0408162E-3,2.7878787E-3,-9.885057E-3],"split_indices":[30,2,3,22,13,13,58,15,0,1,5,1,56,18,22,0,0,0,0,0,0,0,0,0,0,0,0,0,0,0,0],"split_type":[0,0,0,0,0,0,0,0,0,0,0,0,0,0,0,0,0,0,0,0,0,0,0,0,0,0,0,0,0,0,0],"sum_hessian":[3.0875E3,1.77025E3,1.31725E3,1.3715E3,3.9875E2,3.105E2,1.00675E3,7.1675E2,6.5475E2,3.9425E2,4.5E0,2.2375E2,8.675E1,9.24E2,8.275E1,4.9275E2,2.24E2,3.77E2,2.7775E2,1.105E2,2.8375E2,1.75E0,2.75E0,9.025E1,1.335E2,5.125E1,3.55E1,8.1475E2,1.0925E2,4.025E1,4.25E1],"tree_param":{"num_deleted":"0","num_feature":"68","num_nodes":"31","size_leaf_vector":"1"}},{"base_weights":[-6.728554E-3,-6.6830176E-1,1.0973225E0,-1.1003528E0,1.2856668E-1,6.583846E-1,1.453518E0,-8.919797E-1,-1.6197667E0,5.925541E-1,-4.1144642E-1,9.090205E-1,6.412474E-2,1.5957116E0,1.1358078E0,-5.0418954E-3,-1.2175853E-2,-1.6580435E-2,-2.5896588E-3,-2.7284308E-3,8.742121E-3,-1.857313E-3,-1.2676982E-2,5.1543955E-3,1.1753569E-2,-3.961062E-3,4.409025E-3,1.3605515E-2,1.7514028E-2,1.2006322E-2,-9.597158E-4],"categories":[],"categories_nodes":[],"categories_segments":[],"categories_sizes":[],"default_left":[0,0,0,0,0,0,0,0,0,0,0,0,0,0,0,0,0,0,0,0,0,0,0,0,0,0,0,0,0,0,0],"id":1,"left_children":[1,3,5,7,9,11,13,15,17,19,21,23,25,27,29,-1,-1,-1,-1,-1,-1,-1,-1,-1,-1,-1,-1,-1,-1,-1,-1],"loss_changes":[2.264583E3,6.676121E2,1.8067542E2,1.3462622E2,1.7124648E2,7.7726135E1,2.7122192E1,1.12961426E2,1.8255798E1,8.9813126E1,6.0836056E1,3.7890625E1,2.722543E1,1.3725952E1,1.6204346E1,0E0,0E0,0E0,0E0,0E0,0E0,0E0,0E0,0E0,0E0,0E0,0E0,0E0,0E0,0E0,0E0],"parents":[2147483647,0,0,1,1,2,2,3,3,4,4,5,5,6,6,7,7,8,8,9,9,10,10,11,11,12,12,13,13,14,14],"right_children":[2,4,6,8,10,12,14,16,18,20,22,24,26,28,30,-1,-1,-1,-1,-1,-1,-1,-1,-1,-1,-1,-1,-1,-1,-1,-1],"split_conditions":[1E0,1E0,1E0,9E0,1E0,1E0,1E0,1E0,1E0,-3.628118E-1,1.3E1,0E0,0E0,0E0,1.2E1,-5.0418954E-3,-1.2175853E-2,-1.6580435E-2,-2.5896588E-3,-2.7284308E-3,8.742121E-3,-1.857313E-3,-1.2676982E-2,5.1543955E-3,1.1753569E-2,-3.961062E-3,4.409025E-3,1.3605515E-2,1.7514028E-2,1.2006322E-2,-9.597158E-4],"split_indices":[54,30,30,2,22,15,15,22,23,3,2,14,14,14,2,0,0,0,0,0,0,0,0,0,0,0,0,0,0,0,0],"split_type":[0,0,0,0,0,0,0,0,0,0,0,0,0,0,0,0,0,0,0,0,0,0,0,0,0,0,0,0,0,0,0],"sum_hessian":[3.098421E3,1.9377002E3,1.1607207E3,1.2562164E3,6.814838E2,5.2124347E2,6.394772E2,8.9848785E2,3.5772858E2,3.6649152E2,3.1499234E2,3.6624557E2,1.5499791E2,4.3898407E2,2.0049309E2,4.112479E2,4.8723996E2,3.4772916E2,9.99941E0,8.999923E1,2.7649228E2,2.5024309E2,6.474925E1,1.4899794E2,2.1724765E2,6.974889E1,8.5249016E1,1.7874365E2,2.6024042E2,1.9049335E2,9.999741E0],"tree_param":{"num_deleted":"0","num_feature":"68","num_nodes":"31","size_leaf_vector":"1"}},{"base_weights":[-1.2704708E-2,-6.658329E-1,1.0843235E0,-1.077342E0,9.952718E-2,6.4624035E-1,1.4268534E0,-7.041974E-1,-1.3724341E0,5.417398E-1,-4.091574E-1,1.0769829E0,2.6260406E-1,1.5642643E0,1.1225611E0,-4.75143E-3,-1.3800046E-2,-1.2103952E-2,-1.7388092E-2,-3.595069E-3,7.6501304E-3,-1.7706145E-3,-1.2177628E-2,1.2543367E-2,5.3372714E-3,5.5354484E-3,-3.1021764E-3,1.35872075E-2,1.7006904E-2,-2.153539E-3,1.1816874E-2],"categories":[],"categories_nodes":[],"categories_segments":[],"categories_sizes":[],"default_left":[0,0,0,0,0,0,0,0,0,0,0,0,0,0,0,0,0,0,0,0,0,0,0,0,0,0,0,0,0,0,0],"id":2,"left_children":[1,3,5,7,9,11,13,15,17,19,21,23,25,27,29,-1,-1,-1,-1,-1,-1,-1,-1,-1,-1,-1,-1,-1,-1,-1,-1],"loss_changes":[2.2125198E3,6.097205E2,1.7199951E2,1.376488E2,1.5267157E2,8.357843E1,2.525061E1,8.5714935E1,3.9564697E1,7.331454E1,5.9040558E1,2.2333038E1,4.5126266E1,1.0095337E1,1.6429596E1,0E0,0E0,0E0,0E0,0E0,0E0,0E0,0E0,0E0,0E0,0E0,0E0,0E0,0E0,0E0,0E0],"parents":[2147483647,0,0,1,1,2,2,3,3,4,4,5,5,6,6,7,7,8,8,9,9,10,10,11,11,12,12,13,13,14,14],"right_children":[2,4,6,8,10,12,14,16,18,20,22,24,26,28,30,-1,-1,-1,-1,-1,-1,-1,-1,-1,-1,-1,-1,-1,-1,-1,-1],"split_conditions":[1E0,1E0,1E0,1E0,1E0,-2.2649564E-1,1E0,9E0,9E0,-3.9909297E-1,9E0,1E0,1E0,0E0,-5.0793654E-1,-4.75143E-3,-1.3800046E-2,-1.2103952E-2,-1.7388092E-2,-3.595069E-3,7.6501304E-3,-1.7706145E-3,-1.2177628E-2,1.2543367E-2,5.3372714E-3,5.5354484E-3,-3.1021764E-3,1.35872075E-2,1.7006904E-2,-2.153539E-3,1.1816874E-2],"split_indices":[54,30,30,22,22,1,15,2,2,3,2,15,15,14,3,0,0,0,0,0,0,0,0,0,0,0,0,0,0,0,0],"split_type":[0,0,0,0,0,0,0,0,0,0,0,0,0,0,0,0,0,0,0,0,0,0,0,0,0,0,0,0,0,0,0],"sum_hessian":[3.085947E3,1.9345712E3,1.1513757E3,1.2578556E3,6.767156E2,5.064857E2,6.448901E2,5.5696204E2,7.008935E2,3.6197574E2,3.1473987E2,2.3774312E2,2.6874255E2,4.4141653E2,2.0347356E2,4.17246E2,1.3971602E2,4.8894745E2,2.1194604E2,7.174906E1,2.9022668E2,2.4549408E2,6.924578E1,1.7824385E2,5.9499268E1,1.7824442E2,9.0498146E1,1.8047179E2,2.6094473E2,8.499692E0,1.9497386E2],"tree_param":{"num_deleted":"0","num_feature":"68","num_nodes":"31","size_leaf_vector":"1"}},{"base_weights":[8.58439E-3,-6.3812166E-1,1.0892217E0,-1.0719057E0,1.5168475E-1,6.5362394E-1,1.4335058E0,-8.6448216E-1,-1.6006941E0,6.0026777E-1,-3.5783812E-1,8.4044504E-1,-2.499481E-1,1.503971E0,7.685184E-1,-5.08432E-3,-1.1728053E-2,-1.6496394E-2,-2.0066502E-3,-2.6821673E-3,8.31671E-3,-1.2198148E-3,-1.1346596E-2,4.589462E-3,1.1010361E-2,8.9218176E-4,-9.255434E-3,1.5440445E-2,8.8353455E-3,1.1390862E-2,-7.3333137E-4],"categories":[],"categories_nodes":[],"categories_segments":[],"categories_sizes":[],"default_left":[0,0,0,0,0,0,0,0,0,0,0,0,0,0,0,0,0,0,0,0,0,0,0,0,0,0,0,0,0,0,0],"id":3,"left_children":[1,3,5,7,9,11,13,15,17,19,21,23,25,27,29,-1,-1,-1,-1,-1,-1,-1,-1,-1,-1,-1,-1,-1,-1,-1,-1],"loss_changes":[2.1633293E3,6.636509E2,1.7286938E2,1.3573804E2,1.5733672E2,8.688576E1,2.913733E1,9.821649E1,2.372467E1,7.376846E1,5.8946102E1,4.1817505E1,2.0417337E1,1.3143311E1,2.0044758E1,0E0,0E0,0E0,0E0,0E0,0E0,0E0,0E0,0E0,0E0,0E0,0E0,0E0,0E0,0E0,0E0],"parents":[2147483647,0,0,1,1,2,2,3,3,4,4,5,5,6,6,7,7,8,8,9,9,10,10,11,11,12,12,13,13,14,14],"right_children":[2,4,6,8,10,12,14,16,18,20,22,24,26,28,30,-1,-1,-1,-1,-1,-1,-1,-1,-1,-1,-1,-1,-1,-1,-1,-1],"split_conditions":[1E0,1E0,1E0,9E0,1E0,1E0,1E0,1E0,1E0,-3.9909297E-1,9E0,0E0,1E0,1.2E1,1E0,-5.08432E-3,-1.1728053E-2,-1.6496394E-2,-2.0066502E-3,-2.6821673E-3,8.31671E-3,-1.2198148E-3,-1.1346596E-2,4.589462E-3,1.1010361E-2,8.9218176E-4,-9.255434E-3,1.5440445E-2,8.8353455E-3,1.1390862E-2,-7.3333137E-4],"split_indices":[54,30,30,2,22,18,18,22,23,3,2,14,22,2,22,0,0,0,0,0,0,0,0,0,0,0,0,0,0,0,0],"split_type":[0,0,0,0,0,0,0,0,0,0,0,0,0,0,0,0,0,0,0,0,0,0,0,0,0,0,0,0,0,0,0],"sum_hessian":[3.0935408E3,1.9355956E3,1.1579452E3,1.2491627E3,6.8643286E2,5.124622E2,6.45483E2,8.9911053E2,3.500522E2,3.6495184E2,3.2148102E2,4.2471808E2,8.7744156E1,5.8249713E2,6.2985836E1,4.1848965E2,4.8062088E2,3.3805542E2,1.1996765E1,7.674803E1,2.882038E2,2.474944E2,7.398662E1,1.7349171E2,2.5122636E2,5.8995056E1,2.87491E1,5.4575824E2,3.6738884E1,4.348948E1,1.9496357E1],"tree_param":{"num_deleted":"0","num_feature":"68","num_nodes":"31","size_leaf_vector":"1"}},{"base_weights":[6.184817E-4,-6.340312E-1,1.0690389E0,-1.055509E0,1.3811764E-1,6.502509E-1,1.3973595E0,-6.794763E-1,-1.348511E0,3.5705924E-1,-7.2059023E-1,1.1145256E0,2.2597249E-1,1.5498006E0,1.0443976E0,-4.6774913E-3,-1.3011635E-2,-1.1850635E-2,-1.7267207E-2,6.968837E-3,-2.7551213E-3,-8.589331E-3,4.802492E-3,7.024471E-3,1.3362613E-2,5.1910332E-3,-3.7113035E-3,1.7035782E-2,1.3755315E-2,1.1191343E-2,-2.2696224E-3],"categories":[],"categories_nodes":[],"categories_segments":[],"categories_sizes":[],"default_left":[0,0,0,0,0,0,0,0,0,0,0,0,0,0,0,0,0,0,0,0,0,0,0,0,0,0,0,0,0,0,0],"id":4,"left_children":[1,3,5,7,9,11,13,15,17,19,21,23,25,27,29,-1,-1,-1,-1,-1,-1,-1,-1,-1,-1,-1,-1,-1,-1,-1,-1],"loss_changes":[2.0860662E3,6.2825806E2,1.5672375E2,1.36656E2,1.285508E2,9.935817E1,3.291211E1,7.163556E1,4.127417E1,1.17221886E2,2.3499107E1,2.110086E1,4.665874E1,9.612183E0,1.8937927E1,0E0,0E0,0E0,0E0,0E0,0E0,0E0,0E0,0E0,0E0,0E0,0E0,0E0,0E0,0E0,0E0],"parents":[2147483647,0,0,1,1,2,2,3,3,4,4,5,5,6,6,7,7,8,8,9,9,10,10,11,11,12,12,13,13,14,14],"right_children":[2,4,6,8,10,12,14,16,18,20,22,24,26,28,30,-1,-1,-1,-1,-1,-1,-1,-1,-1,-1,-1,-1,-1,-1,-1,-1],"split_conditions":[1E0,1E0,1E0,1E0,1E1,-2.1198684E-1,1E0,9E0,1.1E1,1E0,7.198276E-1,0E0,1E0,-1.2749767E-1,1.2E1,-4.6774913E-3,-1.3011635E-2,-1.1850635E-2,-1.7267207E-2,6.968837E-3,-2.7551213E-3,-8.589331E-3,4.802492E-3,7.024471E-3,1.3362613E-2,5.1910332E-3,-3.7113035E-3,1.7035782E-2,1.3755315E-2,1.1191343E-2,-2.2696224E-3],"split_indices":[54,30,30,22,2,1,15,2,2,15,13,14,15,1,2,0,0,0,0,0,0,0,0,0,0,0,0,0,0,0,0],"split_type":[0,0,0,0,0,0,0,0,0,0,0,0,0,0,0,0,0,0,0,0,0,0,0,0,0,0,0,0,0,0,0],"sum_hessian":[3.0744644E3,1.9290192E3,1.1454452E3,1.2476318E3,6.8138727E2,5.046815E2,6.4076373E2,5.4785077E2,6.9978107E2,5.4341815E2,1.3796913E2,2.4020538E2,2.644761E2,4.451266E2,1.9563713E2,4.0997766E2,1.3787314E2,4.915051E2,2.0827599E2,3.5344293E2,1.899752E2,1.2397168E2,1.399745E1,8.549241E1,1.5471298E2,1.7747859E2,8.6997505E1,2.3180388E2,2.1332271E2,1.8488823E2,1.0748894E1],"tree_param":{"num_deleted":"0","num_feature":"68","num_nodes":"31","size_leaf_vector":"1"}},{"base_weights":[-6.6568316E-3,-6.384909E-1,1.0657054E0,-1.0411559E0,1.0179713E-1,6.336676E-1,1.4105386E0,-1.4462315E0,-8.3452296E-1,-6.7919046E-1,3.54192E-1,1.0870483E0,2.0867926E-1,1.4876109E0,7.32106E-1,-1.5009339E-2,1.0070173E-3,-4.9315467E-3,-1.0943168E-2,-9.3537755E-3,-4.7592795E-4,5.1758736E-3,-7.3900702E-3,1.2145021E-2,2.5631492E-3,4.01161E-3,-5.2025705E-3,1.5461485E-2,9.504415E-3,8.7513064E-4,1.0331309E-2],"categories":[],"categories_nodes":[],"categories_segments":[],"categories_sizes":[],"default_left":[0,0,0,0,0,0,0,0,0,0,0,0,0,0,0,0,0,0,0,0,0,0,0,0,0,0,0,0,0,0,0],"id":5,"left_children":[1,3,5,7,9,11,13,15,17,19,21,23,25,27,29,-1,-1,-1,-1,-1,-1,-1,-1,-1,-1,-1,-1,-1,-1,-1,-1],"loss_changes":[2.1041326E3,5.826028E2,1.7063745E2,1.0473987E2,1.3612299E2,9.859505E1,3.2348755E1,3.621692E1,7.400531E1,2.7253998E1,9.355941E1,2.5937622E1,3.7525448E1,1.6557007E1,1.2950138E1,0E0,0E0,0E0,0E0,0E0,0E0,0E0,0E0,0E0,0E0,0E0,0E0,0E0,0E0,0E0,0E0],"parents":[2147483647,0,0,1,1,2,2,3,3,4,4,5,5,6,6,7,7,8,8,9,9,10,10,11,11,12,12,13,13,14,14],"right_children":[2,4,6,8,10,12,14,16,18,20,22,24,26,28,30,-1,-1,-1,-1,-1,-1,-1,-1,-1,-1,-1,-1,-1,-1,-1,-1],"split_conditions":[1E0,1E0,1E0,-3.7188208E-1,-3.809524E-1,-2.0674975E-1,1E0,1E0,-6.731159E-2,4E-1,1E0,1E0,1E0,1.6625E1,2E-1,-1.5009339E-2,1.0070173E-3,-4.9315467E-3,-1.0943168E-2,-9.3537755E-3,-4.7592795E-4,5.1758736E-3,-7.3900702E-3,1.2145021E-2,2.5631492E-3,4.01161E-3,-5.2025705E-3,1.5461485E-2,9.504415E-3,8.7513064E-4,1.0331309E-2],"split_indices":[54,30,30,3,3,1,18,23,1,0,18,18,18,11,0,0,0,0,0,0,0,0,0,0,0,0,0,0,0,0,0],"split_type":[0,0,0,0,0,0,0,0,0,0,0,0,0,0,0,0,0,0,0,0,0,0,0,0,0,0,0,0,0,0,0],"sum_hessian":[3.1034736E3,1.9531095E3,1.1503643E3,1.2647612E3,6.883482E2,5.1187674E2,6.3848755E2,4.2520538E2,8.3955585E2,1.6771017E2,5.2063806E2,2.469117E2,2.6496506E2,5.7228156E2,6.620596E1,4.1071164E2,1.4493765E1,3.6406882E2,4.7548703E2,1.1897205E2,4.873812E1,4.5339737E2,6.724066E1,2.1366809E2,3.32436E1,2.099703E2,5.499476E1,5.143521E2,5.7929504E1,2.148668E1,4.4719284E1],"tree_param":{"num_deleted":"0","num_feature":"68","num_nodes":"31","size_leaf_vector":"1"}},{"base_weights":[9.2723435E-3,-6.2482387E-1,1.0499637E0,-1.0394489E0,1.3827042E-1,6.275142E-1,1.3787032E0,-8.379953E-1,-1.5467575E0,6.113181E-1,-3.9991575E-1,8.253754E-1,-2.864441E-1,1.4547232E0,7.1261E-1,-5.853058E-3,-1.2310511E-2,-1.5984293E-2,4.601769E-4,7.957641E-3,-5.3748465E-3,-5.772403E-3,6.938224E-3,1.0211519E-2,3.249367E-3,7.0165365E-4,-1.1008051E-2,1.6181428E-2,1.2707016E-2,9.921463E-3,9.107619E-4],"categories":[],"categories_nodes":[],"categories_segments":[],"categories_sizes":[],"default_left":[0,0,0,0,0,0,0,0,0,0,0,0,0,0,0,0,0,0,0,0,0,0,0,0,0,0,0,0,0,0,0],"id":6,"left_children":[1,3,5,7,9,11,13,15,17,19,21,23,25,27,29,-1,-1,-1,-1,-1,-1,-1,-1,-1,-1,-1,-1,-1,-1,-1,-1],"loss_changes":[2.0291145E3,6.046869E2,1.6081262E2,1.2524109E2,1.7172481E2,9.270091E1,3.207312E1,8.7516846E1,2.8939941E1,7.6469315E1,6.1627766E1,4.087393E1,2.6718393E1,1.5564453E1,1.18876E1,0E0,0E0,0E0,0E0,0E0,0E0,0E0,0E0,0E0,0E0,0E0,0E0,0E0,0E0,0E0,0E0],"parents":[2147483647,0,0,1,1,2,2,3,3,4,4,5,5,6,6,7,7,8,8,9,9,10,10,11,11,12,12,13,13,14,14],"right_children":[2,4,6,8,10,12,14,16,18,20,22,24,26,28,30,-1,-1,-1,-1,-1,-1,-1,-1,-1,-1,-1,-1,-1,-1,-1,-1],"split_conditions":[1E0,1E0,1E0,9E0,1E0,1E0,1E0,1E0,1E0,1E0,7.0258623E-1,1E0,1E0,-2.5E-1,1E0,-5.853058E-3,-1.2310511E-2,-1.5984293E-2,4.601769E-4,7.957641E-3,-5.3748465E-3,-5.772403E-3,6.938224E-3,1.0211519E-2,3.249367E-3,7.0165365E-4,-1.1008051E-2,1.6181428E-2,1.2707016E-2,9.921463E-3,9.107619E-4],"split_indices":[54,30,30,2,22,18,18,15,23,18,13,15,22,11,22,0,0,0,0,0,0,0,0,0,0,0,0,0,0,0,0],"split_type":[0,0,0,0,0,0,0,0,0,0,0,0,0,0,0,0,0,0,0,0,0,0,0,0,0,0,0,0,0,0,0],"sum_hessian":[3.0728948E3,1.9097054E3,1.1631893E3,1.2371445E3,6.7256085E2,5.1031442E2,6.5287494E2,8.874055E2,3.4973904E2,3.5786954E2,3.1469128E2,4.195777E2,9.073672E1,5.849336E2,6.794137E1,5.41666E2,3.4573953E2,3.387461E2,1.0992953E1,3.086255E2,4.924404E1,2.711954E2,4.349588E1,3.0084402E2,1.1873367E2,6.3739132E1,2.6997583E1,3.0568137E2,2.7925223E2,4.6452812E1,2.1488554E1],"tree_param":{"num_deleted":"0","num_feature":"68","num_nodes":"31","size_leaf_vector":"1"}},{"base_weights":[2.409292E-3,-5.4630333E-1,7.3131156E-1,-1.1699045E0,-1.7872779E-1,-1.0491581E-1,9.812285E-1,-8.0794066E-1,-1.469542E0,1.4816804E-1,-7.469706E-1,-4.1363615E-1,6.945865E-1,4.8626152E-1,1.2271272E0,-2.5764322E-3,-1.1813704E-2,-1.51978955E-2,7.0608646E-4,5.8588027E-3,-2.6299225E-3,1.3535595E-4,-9.433548E-3,3.7251101E-4,-8.659642E-3,8.763363E-3,-5.901625E-3,9.164105E-3,1.2810206E-3,1.3288669E-2,4.4199787E-3],"categories":[],"categories_nodes":[],"categories_segments":[],"categories_sizes":[],"default_left":[0,0,0,0,0,0,0,0,0,0,0,0,0,0,0,0,0,0,0,0,0,0,0,0,0,0,0,0,0,0,0],"id":7,"left_children":[1,3,5,7,9,11,13,15,17,19,21,23,25,27,29,-1,-1,-1,-1,-1,-1,-1,-1,-1,-1,-1,-1,-1,-1,-1,-1],"loss_changes":[1.2390188E3,4.0491412E2,2.7815637E2,6.988019E1,2.0688353E2,7.60719E1,1.2408948E2,6.1136047E1,2.7756042E1,1.27476906E2,6.0750046E1,4.5336338E1,2.0576565E1,5.252173E1,5.4031006E1,0E0,0E0,0E0,0E0,0E0,0E0,0E0,0E0,0E0,0E0,0E0,0E0,0E0,0E0,0E0,0E0],"parents":[2147483647,0,0,1,1,2,2,3,3,4,4,5,5,6,6,7,7,8,8,9,9,10,10,11,11,12,12,13,13,14,14],"right_children":[2,4,6,8,10,12,14,16,18,20,22,24,26,28,30,-1,-1,-1,-1,-1,-1,-1,-1,-1,-1,-1,-1,-1,-1,-1,-1],"split_conditions":[1E0,-2.5396827E-1,-2.7210885E-1,9E0,1E0,3.8362068E-1,-2.1551725E-2,-1.8479034E-1,1E0,-1.0682867E-1,-5.714286E-1,1E0,1E0,-1.9991659E-1,1E0,-2.5764322E-3,-1.1813704E-2,-1.51978955E-2,7.0608646E-4,5.8588027E-3,-2.6299225E-3,1.3535595E-4,-9.433548E-3,3.7251101E-4,-8.659642E-3,8.763363E-3,-5.901625E-3,9.164105E-3,1.2810206E-3,1.3288669E-2,4.4199787E-3],"split_indices":[30,3,3,2,15,13,13,1,23,1,12,22,18,1,18,0,0,0,0,0,0,0,0,0,0,0,0,0,0,0,0],"split_type":[0,0,0,0,0,0,0,0,0,0,0,0,0,0,0,0,0,0,0,0,0,0,0,0,0,0,0,0,0,0,0],"sum_hessian":[3.0958743E3,1.7663949E3,1.3294795E3,6.542539E2,1.112141E3,3.0604074E2,1.0234387E3,2.9798398E2,3.5626993E2,7.064673E2,4.0567365E2,2.2113438E2,8.490635E1,3.4067502E2,6.8276373E2,1.2114739E2,1.768366E2,3.450266E2,1.1243315E1,3.41979E2,3.6448828E2,8.3448166E1,3.222255E2,1.11203125E2,1.0993127E2,7.466202E1,1.0244331E1,1.5407387E2,1.8660115E2,6.038254E2,7.8938354E1],"tree_param":{"num_deleted":"0","num_feature":"68","num_nodes":"31","size_leaf_vector":"1"}},{"base_weights":[7.404561E-3,-6.190754E-1,1.0543003E0,-1.005235E0,9.747784E-2,6.5207213E-1,1.3756678E0,-7.9377365E-1,-1.5283091E0,5.1740205E-1,-3.712459E-1,1.0666529E0,2.6352692E-1,1.5118492E0,1.0670089E0,-4.4480073E-3,-1.0880964E-2,-1.5627256E-2,-4.647078E-3,-2.4982588E-3,7.7831224E-3,-5.305844E-3,9.481183E-3,1.2166706E-2,1.7877425E-3,5.396034E-3,-2.9532826E-3,1.5571788E-2,9.969411E-3,1.13360435E-2,-2.7894499E-3],"categories":[],"categories_nodes":[],"categories_segments":[],"categories_sizes":[],"default_left":[0,0,0,0,0,0,0,0,0,0,0,0,0,0,0,0,0,0,0,0,0,0,0,0,0,0,0,0,0,0,0],"id":8,"left_children":[1,3,5,7,9,11,13,15,17,19,21,23,25,27,29,-1,-1,-1,-1,-1,-1,-1,-1,-1,-1,-1,-1,-1,-1,-1,-1],"loss_changes":[2.0297017E3,5.3583105E2,1.4886731E2,1.3795618E2,1.3382361E2,8.2913025E1,2.5420166E1,9.1756836E1,1.2493286E1,7.196231E1,6.807013E1,3.3019745E1,4.1497818E1,8.807434E0,1.8268677E1,0E0,0E0,0E0,0E0,0E0,0E0,0E0,0E0,0E0,0E0,0E0,0E0,0E0,0E0,0E0,0E0],"parents":[2147483647,0,0,1,1,2,2,3,3,4,4,5,5,6,6,7,7,8,8,9,9,10,10,11,11,12,12,13,13,14,14],"right_children":[2,4,6,8,10,12,14,16,18,20,22,24,26,28,30,-1,-1,-1,-1,-1,-1,-1,-1,-1,-1,-1,-1,-1,-1,-1,-1],"split_conditions":[1E0,1E0,1E0,9E0,1E0,-2.1198684E-1,1E0,1E0,1E0,-3.446712E-1,8.405172E-1,1E0,1E0,1E0,1.2E1,-4.4480073E-3,-1.0880964E-2,-1.5627256E-2,-4.647078E-3,-2.4982588E-3,7.7831224E-3,-5.305844E-3,9.481183E-3,1.2166706E-2,1.7877425E-3,5.396034E-3,-2.9532826E-3,1.5571788E-2,9.969411E-3,1.13360435E-2,-2.7894499E-3],"split_indices":[54,30,30,2,22,1,15,22,23,3,13,18,15,18,2,0,0,0,0,0,0,0,0,0,0,0,0,0,0,0,0],"split_type":[0,0,0,0,0,0,0,0,0,0,0,0,0,0,0,0,0,0,0,0,0,0,0,0,0,0,0,0,0,0,0],"sum_hessian":[3.0927263E3,1.9351241E3,1.157602E3,1.2572003E3,6.779238E2,5.1546625E2,6.4213586E2,8.970648E2,3.6013556E2,3.57521E2,3.2040283E2,2.4853366E2,2.669326E2,4.4285062E2,1.9928523E2,4.11577E2,4.854878E2,3.4839285E2,1.1742706E1,9.073874E1,2.6678226E2,2.8641107E2,3.3991768E1,2.122938E2,3.6239872E1,1.7869235E2,8.8240234E1,4.0515848E2,3.769213E1,1.9004015E2,9.245091E0],"tree_param":{"num_deleted":"0","num_feature":"68","num_nodes":"31","size_leaf_vector":"1"}},{"base_weights":[5.9113586E-3,-6.091447E-1,1.03705E0,-1.0054075E0,1.1931537E-1,6.3361084E-1,1.3604252E0,-8.156823E-1,-1.4934821E0,3.5762572E-1,-8.126017E-1,1.0710176E0,2.0711677E-1,1.504977E0,1.0309211E0,-5.554174E-3,-1.2191462E-2,-1.5185288E-2,-9.995349E-4,5.3036246E-3,-7.5247562E-3,-9.352988E-3,6.6301785E-3,1.2092683E-2,1.6587549E-3,4.1339714E-3,-6.36867E-3,1.6254436E-2,1.3379165E-2,1.35203535E-2,7.035831E-3],"categories":[],"categories_nodes":[],"categories_segments":[],"categories_sizes":[],"default_left":[0,0,0,0,0,0,0,0,0,0,0,0,0,0,0,0,0,0,0,0,0,0,0,0,0,0,0,0,0,0,0],"id":9,"left_children":[1,3,5,7,9,11,13,15,17,19,21,23,25,27,29,-1,-1,-1,-1,-1,-1,-1,-1,-1,-1,-1,-1,-1,-1,-1,-1],"loss_changes":[1.9533419E3,5.570141E2,1.4926672E2,1.1449756E2,1.514421E2,9.5640015E1,2.8831177E1,9.404419E1,1.2014954E1,1.04463585E2,2.5769669E1,3.151477E1,4.577523E1,6.704529E0,1.9827576E1,0E0,0E0,0E0,0E0,0E0,0E0,0E0,0E0,0E0,0E0,0E0,0E0,0E0,0E0,0E0,0E0],"parents":[2147483647,0,0,1,1,2,2,3,3,4,4,5,5,6,6,7,7,8,8,9,9,10,10,11,11,12,12,13,13,14,14],"right_children":[2,4,6,8,10,12,14,16,18,20,22,24,26,28,30,-1,-1,-1,-1,-1,-1,-1,-1,-1,-1,-1,-1,-1,-1,-1,-1],"split_conditions":[1E0,1E0,1E0,9E0,9E0,-1.9233863E-1,1E0,1E0,9.2672414E-1,1E0,8.146552E-1,1E0,1E0,4.714251E-2,0E0,-5.554174E-3,-1.2191462E-2,-1.5185288E-2,-9.995349E-4,5.3036246E-3,-7.5247562E-3,-9.352988E-3,6.6301785E-3,1.2092683E-2,1.6587549E-3,4.1339714E-3,-6.36867E-3,1.6254436E-2,1.3379165E-2,1.35203535E-2,7.035831E-3],"split_indices":[54,66,66,2,2,1,15,15,13,18,13,18,18,1,11,0,0,0,0,0,0,0,0,0,0,0,0,0,0,0,0],"split_type":[0,0,0,0,0,0,0,0,0,0,0,0,0,0,0,0,0,0,0,0,0,0,0,0,0,0,0,0,0,0,0],"sum_hessian":[3.0779739E3,1.9282286E3,1.1497452E3,1.2486282E3,6.7960046E2,5.1286285E2,6.368823E2,9.0104407E2,3.4758408E2,5.4169434E2,1.3790613E2,2.5244615E2,2.6041672E2,4.4020108E2,1.9668124E2,5.4916656E2,3.5187753E2,3.4135895E2,6.225135E0,4.6920602E2,7.248831E1,1.27657616E2,1.0248508E1,2.1870529E2,3.3740856E1,2.0967876E2,5.0737976E1,2.5069576E2,1.8950533E2,9.7704254E1,9.897699E1],"tree_param":{"num_deleted":"0","num_feature":"68","num_nodes":"31","size_leaf_vector":"1"}},{"base_weights":[9.758126E-3,-5.9069276E-1,1.014181E0,-9.837601E-1,1.2565552E-1,6.125765E-1,1.3296317E0,-6.260968E-1,-1.2747672E0,3.6072844E-1,-7.754312E-1,1.0239713E0,2.1943107E-1,1.074614E0,1.5053415E0,-4.0345616E-3,-1.2797042E-2,-1.5332545E-2,-1.0601671E-2,6.826813E-3,-2.423691E-3,-8.993686E-3,9.908487E-3,1.1055154E-2,-4.65585E-4,5.0738715E-3,-3.277072E-3,1.1933332E-2,2.1446964E-3,1.5252512E-2,-2.0510515E-3],"categories":[],"categories_nodes":[],"categories_segments":[],"categories_sizes":[],"default_left":[0,0,0,0,0,0,0,0,0,0,0,0,0,0,0,0,0,0,0,0,0,0,0,0,0,0,0,0,0,0,0],"id":10,"left_children":[1,3,5,7,9,11,13,15,17,19,21,23,25,27,29,-1,-1,-1,-1,-1,-1,-1,-1,-1,-1,-1,-1,-1,-1,-1,-1],"loss_changes":[1.851888E3,5.4123895E2,1.4472656E2,1.2836707E2,1.4469257E2,8.1817505E1,2.717566E1,8.0785324E1,3.627771E1,1.0528695E2,3.1839523E1,2.1665894E1,4.123257E1,2.6868622E1,1.3183838E1,0E0,0E0,0E0,0E0,0E0,0E0,0E0,0E0,0E0,0E0,0E0,0E0,0E0,0E0,0E0,0E0],"parents":[2147483647,0,0,1,1,2,2,3,3,4,4,5,5,6,6,7,7,8,8,9,9,10,10,11,11,12,12,13,13,14,14],"right_children":[2,4,6,8,10,12,14,16,18,20,22,24,26,28,30,-1,-1,-1,-1,-1,-1,-1,-1,-1,-1,-1,-1,-1,-1,-1,-1],"split_conditions":[1E0,1E0,1E0,1E0,1E1,-2.0674975E-1,0E0,9E0,-2.9024944E-1,1E0,1E0,9E0,1E0,1E0,1.3590439E2,-4.0345616E-3,-1.2797042E-2,-1.5332545E-2,-1.0601671E-2,6.826813E-3,-2.423691E-3,-8.993686E-3,9.908487E-3,1.1055154E-2,-4.65585E-4,5.0738715E-3,-3.277072E-3,1.1933332E-2,2.1446964E-3,1.5252512E-2,-2.0510515E-3],"split_indices":[54,30,30,22,2,1,14,2,3,15,23,2,15,18,6,0,0,0,0,0,0,0,0,0,0,0,0,0,0,0,0],"split_type":[0,0,0,0,0,0,0,0,0,0,0,0,0,0,0,0,0,0,0,0,0,0,0,0,0,0,0,0,0,0,0],"sum_hessian":[3.068588E3,1.9207577E3,1.1478302E3,1.2399897E3,6.8076794E2,5.0625375E2,6.415765E2,5.576991E2,6.822907E2,5.403917E2,1.4037617E2,2.466011E2,2.5965265E2,2.6462592E2,3.769506E2,4.17203E2,1.4049606E2,3.0671057E2,3.7558014E2,3.5222873E2,1.88163E2,1.3163066E2,8.745527E0,2.2911627E2,1.7484837E1,1.7016718E2,8.948547E1,2.32191E2,3.2434925E1,3.7272034E2,4.230228E0],"tree_param":{"num_deleted":"0","num_feature":"68","num_nodes":"31","size_leaf_vector":"1"}},{"base_weights":[7.980979E-3,-5.94402E-1,1.016601E0,-9.815279E-1,1.15456365E-1,6.1492956E-1,1.3270129E0,-7.8691036E-1,-1.4703789E0,5.407397E-1,-3.62736E-1,1.1049937E0,3.2321316E-1,1.3990287E0,6.8442166E-1,-4.279059E-3,-1.0846347E-2,-1.2338649E-2,-1.6240511E-2,7.2056255E-3,-5.311987E-3,-1.2970667E-3,-1.2471729E-2,1.2299937E-2,3.01656E-3,-1.2621658E-3,6.9266167E-3,1.4403167E-2,7.16976E-3,1.019243E-2,-7.4462063E-4],"categories":[],"categories_nodes":[],"categories_segments":[],"categories_sizes":[],"default_left":[0,0,0,0,0,0,0,0,0,0,0,0,0,0,0,0,0,0,0,0,0,0,0,0,0,0,0,0,0,0,0],"id":11,"left_children":[1,3,5,7,9,11,13,15,17,19,21,23,25,27,29,-1,-1,-1,-1,-1,-1,-1,-1,-1,-1,-1,-1,-1,-1,-1,-1],"loss_changes":[1.863884E3,5.27921E2,1.4220618E2,1.1709766E2,1.3822108E2,7.139435E1,2.8945557E1,9.478949E1,1.0818298E1,6.97034E1,6.5805534E1,1.8393631E1,5.256184E1,1.5303345E1,1.7119705E1,0E0,0E0,0E0,0E0,0E0,0E0,0E0,0E0,0E0,0E0,0E0,0E0,0E0,0E0,0E0,0E0],"parents":[2147483647,0,0,1,1,2,2,3,3,4,4,5,5,6,6,7,7,8,8,9,9,10,10,11,11,12,12,13,13,14,14],"right_children":[2,4,6,8,10,12,14,16,18,20,22,24,26,28,30,-1,-1,-1,-1,-1,-1,-1,-1,-1,-1,-1,-1,-1,-1,-1,-1],"split_conditions":[1E0,1E0,1E0,9E0,1E0,-3.659832E-1,1E0,1E0,1E0,1E0,1.3E1,1E0,0E0,1.1E1,1E0,-4.279059E-3,-1.0846347E-2,-1.2338649E-2,-1.6240511E-2,7.2056255E-3,-5.311987E-3,-1.2970667E-3,-1.2471729E-2,1.2299937E-2,3.01656E-3,-1.2621658E-3,6.9266167E-3,1.4403167E-2,7.16976E-3,1.019243E-2,-7.4462063E-4],"split_indices":[54,30,30,2,22,1,18,22,22,18,2,18,14,2,22,0,0,0,0,0,0,0,0,0,0,0,0,0,0,0,0],"split_type":[0,0,0,0,0,0,0,0,0,0,0,0,0,0,0,0,0,0,0,0,0,0,0,0,0,0,0,0,0,0,0],"sum_hessian":[3.065746E3,1.9196656E3,1.1460806E3,1.2419677E3,6.7769794E2,5.0089987E2,6.4518066E2,8.901841E2,3.5178357E2,3.586233E2,3.1907465E2,1.8586728E2,3.150326E2,5.7910297E2,6.607771E1,4.0466486E2,4.8551926E2,1.4210368E2,2.0967987E2,3.0738565E2,5.1237644E1,2.534444E2,6.5630264E1,1.603808E2,2.548649E1,1.4242844E2,1.7260414E2,5.449996E2,3.410339E1,4.5610962E1,2.0466751E1],"tree_param":{"num_deleted":"0","num_feature":"68","num_nodes":"31","size_leaf_vector":"1"}},{"base_weights":[6.3664983E-3,-5.8536136E-1,1.0025716E0,-9.741027E-1,1.2693325E-1,1.1401873E0,1.1860466E-1,-7.8812754E-1,-1.4520915E0,3.4939548E-1,-7.5777143E-1,8.2041657E-1,1.3753372E0,4.9290183E-1,-7.2223777E-1,-5.314335E-3,-1.1944334E-2,-1.5033923E-2,-6.04406E-4,7.36366E-3,-1.2369907E-3,-8.769781E-3,7.7222893E-3,1.1866452E-2,4.3210643E-3,1.4209243E-2,8.095945E-3,5.690772E-4,1.0056977E-2,6.545732E-4,-1.1689989E-2],"categories":[],"categories_nodes":[],"categories_segments":[],"categories_sizes":[],"default_left":[0,0,0,0,0,0,0,0,0,0,0,0,0,0,0,0,0,0,0,0,0,0,0,0,0,0,0,0,0,0,0],"id":12,"left_children":[1,3,5,7,9,11,13,15,17,19,21,23,25,27,29,-1,-1,-1,-1,-1,-1,-1,-1,-1,-1,-1,-1,-1,-1,-1,-1],"loss_changes":[1.8188911E3,5.3613544E2,1.397362E2,1.1018884E2,1.3495299E2,7.3674805E1,4.945456E1,9.3629395E1,2.486908E1,1.0032837E2,2.5813805E1,5.9788696E1,1.3596069E1,2.4210875E1,1.7129963E1,0E0,0E0,0E0,0E0,0E0,0E0,0E0,0E0,0E0,0E0,0E0,0E0,0E0,0E0,0E0,0E0],"parents":[2147483647,0,0,1,1,2,2,3,3,4,4,5,5,6,6,7,7,8,8,9,9,10,10,11,11,12,12,13,13,14,14],"right_children":[2,4,6,8,10,12,14,16,18,20,22,24,26,28,30,-1,-1,-1,-1,-1,-1,-1,-1,-1,-1,-1,-1,-1,-1,-1,-1],"split_conditions":[1E0,1E0,1E0,9E0,1E1,1E0,1E0,1E0,1E0,1E0,1E0,-1.9233863E-1,5.6060157E0,1E0,-1.9233863E-1,-5.314335E-3,-1.1944334E-2,-1.5033923E-2,-6.04406E-4,7.36366E-3,-1.2369907E-3,-8.769781E-3,7.7222893E-3,1.1866452E-2,4.3210643E-3,1.4209243E-2,8.095945E-3,5.690772E-4,1.0056977E-2,6.545732E-4,-1.1689989E-2],"split_indices":[54,30,18,2,2,30,22,15,23,22,23,1,6,30,1,0,0,0,0,0,0,0,0,0,0,0,0,0,0,0,0],"split_type":[0,0,0,0,0,0,0,0,0,0,0,0,0,0,0,0,0,0,0,0,0,0,0,0,0,0,0,0,0,0,0],"sum_hessian":[3.0835781E3,1.9347712E3,1.1488069E3,1.2514264E3,6.8334485E2,9.938022E2,1.5500467E2,9.02811E2,3.4861536E2,5.4652435E2,1.3682048E2,4.230301E2,5.707721E2,1.0754521E2,4.745946E1,5.546836E2,3.4812738E2,3.361437E2,1.2471644E1,3.0031964E2,2.4620473E2,1.2732689E2,9.493594E0,2.1664697E2,2.0638313E2,5.2681055E2,4.396154E1,5.8725796E1,4.8819416E1,1.7484903E1,2.997456E1],"tree_param":{"num_deleted":"0","num_feature":"68","num_nodes":"31","size_leaf_vector":"1"}},{"base_weights":[-4.386626E-4,-5.226564E-1,6.9208676E-1,-1.0820116E0,-1.6675125E-1,1.6806048E-1,1.0535468E0,-6.784252E-1,-1.3944672E0,1.5053535E-1,-7.3286676E-1,5.7956725E-1,-3.1307563E-1,1.1560134E0,1.2542804E-1,-2.818981E-3,-1.096524E-2,-1.1436688E-2,-1.5888881E-2,-1.2782159E-3,7.045395E-3,-9.648746E-3,-2.2156276E-3,8.79985E-3,-1.4389362E-4,-7.0589175E-3,2.4997722E-3,1.2624043E-2,3.5416433E-3,-2.9195978E-3,1.1488859E-2],"categories":[],"categories_nodes":[],"categories_segments":[],"categories_sizes":[],"default_left":[0,0,0,0,0,0,0,0,0,0,0,0,0,0,0,0,0,0,0,0,0,0,0,0,0,0,0,0,0,0,0],"id":13,"left_children":[1,3,5,7,9,11,13,15,17,19,21,23,25,27,29,-1,-1,-1,-1,-1,-1,-1,-1,-1,-1,-1,-1,-1,-1,-1,-1],"loss_changes":[1.1178322E3,3.5062173E2,2.5151514E2,8.543921E1,1.9375996E2,1.0781099E2,7.462195E1,4.9572052E1,1.6963623E1,1.0676019E2,4.5740524E1,5.2357826E1,5.574743E1,5.994287E1,3.4205746E1,0E0,0E0,0E0,0E0,0E0,0E0,0E0,0E0,0E0,0E0,0E0,0E0,0E0,0E0,0E0,0E0],"parents":[2147483647,0,0,1,1,2,2,3,3,4,4,5,5,6,6,7,7,8,8,9,9,10,10,11,11,12,12,13,13,14,14],"right_children":[2,4,6,8,10,12,14,16,18,20,22,24,26,28,30,-1,-1,-1,-1,-1,-1,-1,-1,-1,-1,-1,-1,-1,-1,-1,-1],"split_conditions":[1E0,-2.3582767E-1,5.6034483E-2,1E0,1E0,1E0,9E0,9E0,9E0,4E-1,5E-1,1E0,2E-1,1E0,8.405172E-1,-2.818981E-3,-1.096524E-2,-1.1436688E-2,-1.5888881E-2,-1.2782159E-3,7.045395E-3,-9.648746E-3,-2.2156276E-3,8.79985E-3,-1.4389362E-4,-7.0589175E-3,2.4997722E-3,1.2624043E-2,3.5416433E-3,-2.9195978E-3,1.1488859E-2],"split_indices":[30,3,13,22,15,22,2,2,2,0,4,15,0,18,13,0,0,0,0,0,0,0,0,0,0,0,0,0,0,0,0],"split_type":[0,0,0,0,0,0,0,0,0,0,0,0,0,0,0,0,0,0,0,0,0,0,0,0,0,0,0,0,0,0,0],"sum_hessian":[3.0889307E3,1.7611401E3,1.3277905E3,6.8403784E2,1.0771023E3,5.426089E2,7.851817E2,2.9987402E2,3.8416382E2,6.907159E2,3.8638635E2,2.9235687E2,2.5025198E2,7.068933E2,7.8288376E1,1.5476672E2,1.451073E2,1.7076425E2,2.1339957E2,4.6023978E2,2.3047614E2,2.6517447E2,1.2121188E2,1.9383524E2,9.852164E1,1.4726103E2,1.0299095E2,6.2358093E2,8.331234E1,5.611729E1,2.2171091E1],"tree_param":{"num_deleted":"0","num_feature":"68","num_nodes":"31","size_leaf_vector":"1"}},{"base_weights":[2.976716E-3,-5.8294475E-1,9.886704E-1,-9.5477825E-1,9.104969E-2,1.1219896E0,1.0968541E-1,-7.657852E-1,-1.4414508E0,3.0217487E-1,-7.161031E-1,7.957862E-1,1.3571163E0,-3.5275033E-1,5.265984E-1,-5.001276E-3,-1.1816881E-2,-1.4969783E-2,-9.371461E-3,4.7123674E-3,-8.051464E-3,3.027051E-3,-9.0356E-3,3.629921E-3,1.0940625E-2,1.4773347E-2,1.0649378E-2,-7.100991E-3,1.4085467E-3,1.5743249E-3,9.884587E-3],"categories":[],"categories_nodes":[],"categories_segments":[],"categories_sizes":[],"default_left":[0,0,0,0,0,0,0,0,0,0,0,0,0,0,0,0,0,0,0,0,0,0,0,0,0,0,0,0,0,0,0],"id":14,"left_children":[1,3,5,7,9,11,13,15,17,19,21,23,25,27,29,-1,-1,-1,-1,-1,-1,-1,-1,-1,-1,-1,-1,-1,-1,-1,-1],"loss_changes":[1.7804368E3,4.846457E2,1.345597E2,1.1351367E2,1.17517494E2,7.545361E1,2.9581537E1,9.8816284E1,8.326233E0,1.0265561E2,2.7586945E1,5.3871613E1,1.8744995E1,1.2956654E1,1.3584106E1,0E0,0E0,0E0,0E0,0E0,0E0,0E0,0E0,0E0,0E0,0E0,0E0,0E0,0E0,0E0,0E0],"parents":[2147483647,0,0,1,1,2,2,3,3,4,4,5,5,6,6,7,7,8,8,9,9,10,10,11,11,12,12,13,13,14,14],"right_children":[2,4,6,8,10,12,14,16,18,20,22,24,26,28,30,-1,-1,-1,-1,-1,-1,-1,-1,-1,-1,-1,-1,-1,-1,-1,-1],"split_conditions":[1E0,1E0,1E0,9E0,1E1,1E0,0E0,1E0,1E0,1E0,-4.2857143E-1,0E0,1E0,4E-1,1E0,-5.001276E-3,-1.1816881E-2,-1.4969783E-2,-9.371461E-3,4.7123674E-3,-8.051464E-3,3.027051E-3,-9.0356E-3,3.629921E-3,1.0940625E-2,1.4773347E-2,1.0649378E-2,-7.100991E-3,1.4085467E-3,1.5743249E-3,9.884587E-3],"split_indices":[54,30,18,2,2,30,14,15,64,18,12,14,15,0,30,0,0,0,0,0,0,0,0,0,0,0,0,0,0,0,0],"split_type":[0,0,0,0,0,0,0,0,0,0,0,0,0,0,0,0,0,0,0,0,0,0,0,0,0,0,0,0,0,0,0],"sum_hessian":[3.080801E3,1.932489E3,1.1483121E3,1.2451437E3,6.873453E2,9.968408E2,1.5147131E2,8.9871344E2,3.4643027E2,5.4533014E2,1.4201518E2,4.193875E2,5.774533E2,7.1887886E1,7.958343E1,5.4975836E2,3.4895508E2,3.102961E2,3.6134132E1,4.735974E2,7.173273E1,2.1974016E1,1.2004116E2,1.720144E2,2.473731E2,4.0624524E2,1.7120804E2,4.144494E1,3.044295E1,4.497538E1,3.460805E1],"tree_param":{"num_deleted":"0","num_feature":"68","num_nodes":"31","size_leaf_vector":"1"}},{"base_weights":[-6.923987E-3,-5.793533E-1,9.652575E-1,-9.4469017E-1,9.28328E-2,5.7030326E-1,1.278665E0,-6.0720634E-1,-1.2089407E0,3.080145E-1,-7.4098194E-1,1.0807343E0,2.8156552E-1,1.4182259E0,9.635523E-1,-4.1008326E-3,-1.1881133E-2,-1.0504393E-2,-1.5710004E-2,6.810408E-3,-1.2985321E-3,-9.835159E-3,-9.788234E-4,1.1899369E-2,1.5932532E-3,5.9514064E-3,-1.9903388E-3,1.6132595E-2,1.2810137E-2,1.2525909E-2,7.048196E-3],"categories":[],"categories_nodes":[],"categories_segments":[],"categories_sizes":[],"default_left":[0,0,0,0,0,0,0,0,0,0,0,0,0,0,0,0,0,0,0,0,0,0,0,0,0,0,0,0,0,0,0],"id":15,"left_children":[1,3,5,7,9,11,13,15,17,19,21,23,25,27,29,-1,-1,-1,-1,-1,-1,-1,-1,-1,-1,-1,-1,-1,-1,-1,-1],"loss_changes":[1.7076959E3,4.7438556E2,1.4003796E2,1.10864624E2,1.2241378E2,7.411667E1,2.648291E1,6.2671158E1,3.856848E1,8.861818E1,2.1738022E1,1.8132126E1,4.8926933E1,9.621704E0,1.3886795E1,0E0,0E0,0E0,0E0,0E0,0E0,0E0,0E0,0E0,0E0,0E0,0E0,0E0,0E0,0E0,0E0],"parents":[2147483647,0,0,1,1,2,2,3,3,4,4,5,5,6,6,7,7,8,8,9,9,10,10,11,11,12,12,13,13,14,14],"right_children":[2,4,6,8,10,12,14,16,18,20,22,24,26,28,30,-1,-1,-1,-1,-1,-1,-1,-1,-1,-1,-1,-1,-1,-1,-1,-1],"split_conditions":[1E0,1E0,1E0,1E0,1E1,-3.8086087E-1,1E0,9E0,9E0,1E0,4E-1,3.328764E1,1E0,-3.188596E-1,-2.5E-1,-4.1008326E-3,-1.1881133E-2,-1.0504393E-2,-1.5710004E-2,6.810408E-3,-1.2985321E-3,-9.835159E-3,-9.788234E-4,1.1899369E-2,1.5932532E-3,5.9514064E-3,-1.9903388E-3,1.6132595E-2,1.2810137E-2,1.2525909E-2,7.048196E-3],"split_indices":[54,30,30,22,2,1,15,2,2,22,0,6,22,1,11,0,0,0,0,0,0,0,0,0,0,0,0,0,0,0,0],"split_type":[0,0,0,0,0,0,0,0,0,0,0,0,0,0,0,0,0,0,0,0,0,0,0,0,0,0,0,0,0,0,0],"sum_hessian":[3.066603E3,1.9303812E3,1.1362219E3,1.2503846E3,6.799965E2,5.039573E2,6.322646E2,5.5055237E2,6.998323E2,5.410094E2,1.3898715E2,1.8108752E2,3.2286978E2,4.3576627E2,1.9649829E2,4.123372E2,1.3821521E2,4.8945935E2,2.1037291E2,2.9183514E2,2.4917424E2,1.00540634E2,3.8446518E1,1.616391E2,1.9448418E1,1.9524232E2,1.2762745E2,1.7552177E2,2.6024448E2,9.099907E1,1.0549922E2],"tree_param":{"num_deleted":"0","num_feature":"68","num_nodes":"31","size_leaf_vector":"1"}},{"base_weights":[1.0551322E-2,-5.689206E-1,9.711826E-1,-9.42698E-1,1.1146213E-1,5.850576E-1,1.2751317E0,-7.64018E-1,-1.4023937E0,4.1814494E-1,-4.6928132E-1,8.4590894E-1,-1.9024137E-2,1.3401387E0,6.9339645E-1,-5.095645E-3,-1.1659342E-2,-1.4609373E-2,-8.628317E-3,6.5337494E-3,-4.8122117E-3,5.1524756E-3,-6.8176505E-3,1.1688398E-2,5.243216E-3,8.2388725E-3,-3.2267063E-3,1.5072339E-2,1.1531627E-2,4.996857E-4,9.813802E-3],"categories":[],"categories_nodes":[],"categories_segments":[],"categories_sizes":[],"default_left":[0,0,0,0,0,0,0,0,0,0,0,0,0,0,0,0,0,0,0,0,0,0,0,0,0,0,0,0,0,0,0],"id":16,"left_children":[1,3,5,7,9,11,13,15,17,19,21,23,25,27,29,-1,-1,-1,-1,-1,-1,-1,-1,-1,-1,-1,-1,-1,-1,-1,-1],"loss_changes":[1.7019956E3,4.8510883E2,1.3426807E2,1.0004199E2,1.20792244E2,8.015164E1,2.3381348E1,9.0287476E1,9.58551E0,9.416966E1,4.940188E1,3.6275146E1,3.9771366E1,1.6294312E1,1.2308025E1,0E0,0E0,0E0,0E0,0E0,0E0,0E0,0E0,0E0,0E0,0E0,0E0,0E0,0E0,0E0,0E0],"parents":[2147483647,0,0,1,1,2,2,3,3,4,4,5,5,6,6,7,7,8,8,9,9,10,10,11,11,12,12,13,13,14,14],"right_children":[2,4,6,8,10,12,14,16,18,20,22,24,26,28,30,-1,-1,-1,-1,-1,-1,-1,-1,-1,-1,-1,-1,-1,-1,-1,-1],"split_conditions":[1E0,1E0,1E0,9E0,1E0,1E0,1E0,1E0,1E0,9E0,-7.1428573E-1,-2.2649564E-1,-4.0529582E-1,-2.5E-1,2E-1,-5.095645E-3,-1.1659342E-2,-1.4609373E-2,-8.628317E-3,6.5337494E-3,-4.8122117E-3,5.1524756E-3,-6.8176505E-3,1.1688398E-2,5.243216E-3,8.2388725E-3,-3.2267063E-3,1.5072339E-2,1.1531627E-2,4.996857E-4,9.813802E-3],"split_indices":[54,30,30,2,15,15,18,15,64,2,12,1,1,11,0,0,0,0,0,0,0,0,0,0,0,0,0,0,0,0,0],"split_type":[0,0,0,0,0,0,0,0,0,0,0,0,0,0,0,0,0,0,0,0,0,0,0,0,0,0,0,0,0,0,0],"sum_hessian":[3.0555278E3,1.9061237E3,1.149404E3,1.2300137E3,6.7611E2,5.0755328E2,6.4185077E2,8.8765247E2,3.423612E2,4.4263852E2,2.3347148E2,3.5420297E2,1.5335033E2,5.7616284E2,6.568793E1,5.4492676E2,3.427257E2,3.0730978E2,3.5051434E1,3.5108536E2,9.155318E1,4.1190994E1,1.9228049E2,1.7541774E2,1.7878523E2,4.0158504E1,1.13191826E2,3.0052805E2,2.7563477E2,2.0672934E1,4.501499E1],"tree_param":{"num_deleted":"0","num_feature":"68","num_nodes":"31","size_leaf_vector":"1"}},{"base_weights":[-1.2345828E-2,-5.900778E-1,9.6109754E-1,-3.775932E-1,-1.2133707E0,1.0839992E0,1.6010049E-1,-2.0907359E-1,-1.1859143E0,-1.2868669E0,5.2558196E-1,1.3174193E0,8.435975E-1,5.138683E-1,-3.1862015E-1,2.9169663E-3,-4.5680166E-3,-7.8043067E-3,-1.3824383E-2,-1.305921E-2,9.692783E-3,9.682432E-3,-2.8773323E-3,1.3891727E-2,5.6701386E-3,9.493747E-3,-1.7534723E-3,3.2415552E-4,8.653694E-3,-1.5181875E-3,-1.3478583E-2],"categories":[],"categories_nodes":[],"categories_segments":[],"categories_sizes":[],"default_left":[0,0,0,0,0,0,0,0,0,0,0,0,0,0,0,0,0,0,0,0,0,0,0,0,0,0,0,0,0,0,0],"id":17,"left_children":[1,3,5,7,9,11,13,15,17,19,21,23,25,27,29,-1,-1,-1,-1,-1,-1,-1,-1,-1,-1,-1,-1,-1,-1,-1,-1],"loss_changes":[1.7160354E3,2.5314557E2,1.1170459E2,1.9447314E2,6.283795E1,5.416797E1,2.59654E1,1.4702522E2,1.8555511E1,2.133905E1,7.6348796E0,2.6028503E1,5.277231E1,1.4862984E1,1.1016178E1,0E0,0E0,0E0,0E0,0E0,0E0,0E0,0E0,0E0,0E0,0E0,0E0,0E0,0E0,0E0,0E0],"parents":[2147483647,0,0,1,1,2,2,3,3,4,4,5,5,6,6,7,7,8,8,9,9,10,10,11,11,12,12,13,13,14,14],"right_children":[2,4,6,8,10,12,14,16,18,20,22,24,26,28,30,-1,-1,-1,-1,-1,-1,-1,-1,-1,-1,-1,-1,-1,-1,-1,-1],"split_conditions":[1E0,9E0,1E0,1E0,1E0,-1.6933848E-1,1.9123924E-1,-3.1284997E-1,-2.5E-1,1.3076923E0,1E0,5.6060157E0,1E0,0E0,1E0,2.9169663E-3,-4.5680166E-3,-7.8043067E-3,-1.3824383E-2,-1.305921E-2,9.692783E-3,9.682432E-3,-2.8773323E-3,1.3891727E-2,5.6701386E-3,9.493747E-3,-1.7534723E-3,3.2415552E-4,8.653694E-3,-1.5181875E-3,-1.3478583E-2],"split_indices":[54,2,18,18,23,1,1,1,11,19,15,6,48,14,48,0,0,0,0,0,0,0,0,0,0,0,0,0,0,0,0],"split_type":[0,0,0,0,0,0,0,0,0,0,0,0,0,0,0,0,0,0,0,0,0,0,0,0,0,0,0,0,0,0,0],"sum_hessian":[3.0493213E3,1.9138551E3,1.1354662E3,1.4284819E3,4.853731E2,9.8411444E2,1.5135175E2,1.183089E3,2.4539297E2,4.659403E2,1.9432812E1,4.970345E2,4.8707993E2,8.699227E1,6.4359474E1,3.915044E2,7.915846E2,8.17308E1,1.6366217E2,4.6245584E2,3.4844768E0,1.2460484E1,6.9723287E0,4.5287918E2,4.4155304E1,4.4133316E2,4.574678E1,3.7171085E1,4.9821186E1,5.6371284E1,7.988192E0],"tree_param":{"num_deleted":"0","num_feature":"68","num_nodes":"31","size_leaf_vector":"1"}},{"base_weights":[2.0132419E-3,-5.60649E-1,9.453217E-1,-9.289158E-1,1.0493166E-1,5.687604E-1,1.251445E0,-6.13179E-1,-1.1798204E0,5.052474E-1,-3.4529108E-1,1.1981966E-1,8.8418293E-1,1.3913119E0,9.347399E-1,-3.7108383E-3,-1.1027504E-2,-1.4542916E-2,-9.757155E-3,-2.2320556E-3,7.407547E-3,-4.8515964E-3,8.696402E-3,4.0537477E-3,-4.8058317E-3,1.0466603E-2,4.672702E-3,1.2080115E-2,1.5116575E-2,-6.2579773E-3,1.0078155E-2],"categories":[],"categories_nodes":[],"categories_segments":[],"categories_sizes":[],"default_left":[0,0,0,0,0,0,0,0,0,0,0,0,0,0,0,0,0,0,0,0,0,0,0,0,0,0,0,0,0,0,0],"id":18,"left_children":[1,3,5,7,9,11,13,15,17,19,21,23,25,27,29,-1,-1,-1,-1,-1,-1,-1,-1,-1,-1,-1,-1,-1,-1,-1,-1],"loss_changes":[1.6402145E3,4.745581E2,1.323833E2,9.8006836E1,1.2460833E2,7.3467834E1,2.6873413E1,6.524379E1,3.742334E1,6.2932175E1,5.574194E1,3.715242E1,2.0171692E1,7.861084E0,2.3197449E1,0E0,0E0,0E0,0E0,0E0,0E0,0E0,0E0,0E0,0E0,0E0,0E0,0E0,0E0,0E0,0E0],"parents":[2147483647,0,0,1,1,2,2,3,3,4,4,5,5,6,6,7,7,8,8,9,9,10,10,11,11,12,12,13,13,14,14],"right_children":[2,4,6,8,10,12,14,16,18,20,22,24,26,28,30,-1,-1,-1,-1,-1,-1,-1,-1,-1,-1,-1,-1,-1,-1,-1,-1],"split_conditions":[1E0,1E0,1E0,1E0,1E0,0E0,1E0,1E0,-3.0839002E-1,-3.628118E-1,8.405172E-1,1E0,1E0,0E0,-5.0793654E-1,-3.7108383E-3,-1.1027504E-2,-1.4542916E-2,-9.757155E-3,-2.2320556E-3,7.407547E-3,-4.8515964E-3,8.696402E-3,4.0537477E-3,-4.8058317E-3,1.0466603E-2,4.672702E-3,1.2080115E-2,1.5116575E-2,-6.2579773E-3,1.0078155E-2],"split_indices":[54,30,30,22,22,14,15,15,3,3,13,15,15,14,3,0,0,0,0,0,0,0,0,0,0,0,0,0,0,0,0],"split_type":[0,0,0,0,0,0,0,0,0,0,0,0,0,0,0,0,0,0,0,0,0,0,0,0,0,0,0,0,0,0,0],"sum_hessian":[3.088291E3,1.9346948E3,1.1535962E3,1.2452825E3,6.8941235E2,5.185669E2,6.350293E2,5.529267E2,6.923557E2,3.648678E2,3.2454456E2,2.145615E2,3.0400543E2,4.381401E2,1.9688918E2,3.711496E2,1.817771E2,2.9266614E2,3.996896E2,8.9154434E1,2.7571335E2,2.9157748E2,3.2967094E1,1.4562582E2,6.893567E1,2.1766678E2,8.633864E1,1.7802525E2,2.6011484E2,8.469014E0,1.8842017E2],"tree_param":{"num_deleted":"0","num_feature":"68","num_nodes":"31","size_leaf_vector":"1"}},{"base_weights":[-7.856843E-3,-5.7189184E-1,9.422709E-1,-9.338232E-1,8.5059226E-2,5.8817446E-1,1.2240194E0,-6.0461706E-1,-1.1575171E0,3.7291747E-1,-4.5465413E-1,9.932419E-1,2.1788274E-1,1.3712493E0,9.0156174E-1,-3.6203437E-3,-9.955406E-3,-1.37690045E-2,-9.131546E-3,-2.8963627E-3,6.7723924E-3,3.3374636E-3,-7.047324E-3,1.0856054E-2,1.1332748E-3,4.9338425E-3,-3.3858328E-3,5.6082415E-3,1.4004882E-2,1.2806408E-2,6.4560906E-3],"categories":[],"categories_nodes":[],"categories_segments":[],"categories_sizes":[],"default_left":[0,0,0,0,0,0,0,0,0,0,0,0,0,0,0,0,0,0,0,0,0,0,0,0,0,0,0,0,0,0,0],"id":19,"left_children":[1,3,5,7,9,11,13,15,17,19,21,23,25,27,29,-1,-1,-1,-1,-1,-1,-1,-1,-1,-1,-1,-1,-1,-1,-1,-1],"loss_changes":[1.6442863E3,4.5785864E2,1.13306885E2,9.072351E1,1.06564865E2,7.603601E1,2.8937683E1,4.7469604E1,3.831134E1,9.0358734E1,4.7289307E1,1.95858E1,4.1079823E1,9.508545E0,1.8786804E1,0E0,0E0,0E0,0E0,0E0,0E0,0E0,0E0,0E0,0E0,0E0,0E0,0E0,0E0,0E0,0E0],"parents":[2147483647,0,0,1,1,2,2,3,3,4,4,5,5,6,6,7,7,8,8,9,9,10,10,11,11,12,12,13,13,14,14],"right_children":[2,4,6,8,10,12,14,16,18,20,22,24,26,28,30,-1,-1,-1,-1,-1,-1,-1,-1,-1,-1,-1,-1,-1,-1,-1,-1],"split_conditions":[1E0,1E0,1E0,-1.0682867E-1,1E0,-2.0674975E-1,1E0,1E0,-1.904762E-1,-3.1746033E-1,-5.714286E-1,3.5897385E1,1E0,-5.714286E-1,-3.125E-1,-3.6203437E-3,-9.955406E-3,-1.37690045E-2,-9.131546E-3,-2.8963627E-3,6.7723924E-3,3.3374636E-3,-7.047324E-3,1.0856054E-2,1.1332748E-3,4.9338425E-3,-3.3858328E-3,5.6082415E-3,1.4004882E-2,1.2806408E-2,6.4560906E-3],"split_indices":[54,66,66,1,15,1,15,15,3,3,12,6,15,3,11,0,0,0,0,0,0,0,0,0,0,0,0,0,0,0,0],"split_type":[0,0,0,0,0,0,0,0,0,0,0,0,0,0,0,0,0,0,0,0,0,0,0,0,0,0,0,0,0,0,0],"sum_hessian":[3.0662349E3,1.9242932E3,1.1419417E3,1.2404666E3,6.838267E2,5.0737265E2,6.3456903E2,5.0336957E2,7.370969E2,4.461695E2,2.3765721E2,2.4150479E2,2.6586786E2,4.3342184E2,2.0114719E2,3.1180743E2,1.915621E2,3.8595767E2,3.5113928E2,1.4044597E2,3.057235E2,5.7150177E1,1.8050703E2,2.1835101E2,2.315378E1,1.7790298E2,8.7964874E1,1.5795407E1,4.1762643E2,7.9459755E1,1.2168744E2],"tree_param":{"num_deleted":"0","num_feature":"68","num_nodes":"31","size_leaf_vector":"1"}},{"base_weights":[2.0637803E-3,-5.541129E-1,9.3649316E-1,-9.120812E-1,9.628589E-2,5.62618E-1,1.230968E0,-5.8283967E-1,-1.1760265E0,2.5221863E-1,-9.59126E-1,7.2995406E-1,-2.7576503E-1,9.986863E-1,1.3893957E0,-3.974956E-3,-1.21901855E-2,-1.0236048E-2,-1.530842E-2,4.599603E-3,-5.4271715E-3,-3.2835996E-3,-1.2596748E-2,3.5528077E-3,9.8376665E-3,9.037971E-4,-1.0410926E-2,1.0973651E-2,2.3040562E-3,1.4062732E-2,-8.712041E-4],"categories":[],"categories_nodes":[],"categories_segments":[],"categories_sizes":[],"default_left":[0,0,0,0,0,0,0,0,0,0,0,0,0,0,0,0,0,0,0,0,0,0,0,0,0,0,0,0,0,0,0],"id":20,"left_children":[1,3,5,7,9,11,13,15,17,19,21,23,25,27,29,-1,-1,-1,-1,-1,-1,-1,-1,-1,-1,-1,-1,-1,-1,-1,-1],"loss_changes":[1.5887758E3,4.462696E2,1.2488959E2,1.06740845E2,1.1235332E2,7.09662E1,2.2062683E1,6.4607056E1,3.5486755E1,9.839714E1,1.6250137E1,3.9663452E1,2.38154E1,1.9606262E1,9.499695E0,0E0,0E0,0E0,0E0,0E0,0E0,0E0,0E0,0E0,0E0,0E0,0E0,0E0,0E0,0E0,0E0],"parents":[2147483647,0,0,1,1,2,2,3,3,4,4,5,5,6,6,7,7,8,8,9,9,10,10,11,11,12,12,13,13,14,14],"right_children":[2,4,6,8,10,12,14,16,18,20,22,24,26,28,30,-1,-1,-1,-1,-1,-1,-1,-1,-1,-1,-1,-1,-1,-1,-1,-1],"split_conditions":[1E0,1E0,1E0,1E0,1E0,1E0,0E0,1E0,9E0,1E1,-1.875E-1,0E0,1E0,1E0,1.3590439E2,-3.974956E-3,-1.21901855E-2,-1.0236048E-2,-1.530842E-2,4.599603E-3,-5.4271715E-3,-3.2835996E-3,-1.2596748E-2,3.5528077E-3,9.8376665E-3,9.037971E-4,-1.0410926E-2,1.0973651E-2,2.3040562E-3,1.4062732E-2,-8.712041E-4],"split_indices":[54,30,30,22,18,18,14,18,2,2,11,14,22,18,6,0,0,0,0,0,0,0,0,0,0,0,0,0,0,0,0],"split_type":[0,0,0,0,0,0,0,0,0,0,0,0,0,0,0,0,0,0,0,0,0,0,0,0,0,0,0,0,0,0,0],"sum_hessian":[3.0550574E3,1.915406E3,1.1396515E3,1.2351812E3,6.802248E2,5.0341254E2,6.362389E2,5.510356E2,6.8414557E2,5.933245E2,8.690024E1,4.197603E2,8.365222E1,2.6094843E2,3.752905E2,4.2797452E2,1.230611E2,4.8128168E2,2.028639E2,4.7072952E2,1.2259502E2,2.8719254E1,5.818098E1,1.7048839E2,2.4927191E2,5.7178867E1,2.6473358E1,2.3086723E2,3.0081188E1,3.710962E2,4.194293E0],"tree_param":{"num_deleted":"0","num_feature":"68","num_nodes":"31","size_leaf_vector":"1"}},{"base_weights":[6.8271547E-3,-5.5029243E-1,9.293457E-1,-9.024619E-1,8.909655E-2,5.563569E-1,1.2333171E0,-7.1741253E-1,-1.3834578E0,4.6710277E-1,-3.4151858E-1,7.355049E-1,-3.2399124E-1,1.3000637E0,6.470512E-1,-3.8738826E-3,-9.968749E-3,-1.4318037E-2,6.847491E-4,6.509022E-3,-6.588724E-3,-4.907216E-3,9.187427E-3,1.18300235E-2,4.695874E-3,7.237729E-4,-8.52274E-3,1.452149E-2,1.1258813E-2,9.155458E-3,4.3801898E-5],"categories":[],"categories_nodes":[],"categories_segments":[],"categories_sizes":[],"default_left":[0,0,0,0,0,0,0,0,0,0,0,0,0,0,0,0,0,0,0,0,0,0,0,0,0,0,0,0,0,0,0],"id":21,"left_children":[1,3,5,7,9,11,13,15,17,19,21,23,25,27,29,-1,-1,-1,-1,-1,-1,-1,-1,-1,-1,-1,-1,-1,-1,-1,-1],"loss_changes":[1.5710577E3,4.292281E2,1.2980743E2,1.08402466E2,1.1048988E2,8.203293E1,2.394165E1,8.166614E1,2.3991882E1,7.5216835E1,6.013922E1,5.07612E1,1.8569754E1,1.3401306E1,1.1509733E1,0E0,0E0,0E0,0E0,0E0,0E0,0E0,0E0,0E0,0E0,0E0,0E0,0E0,0E0,0E0,0E0],"parents":[2147483647,0,0,1,1,2,2,3,3,4,4,5,5,6,6,7,7,8,8,9,9,10,10,11,11,12,12,13,13,14,14],"right_children":[2,4,6,8,10,12,14,16,18,20,22,24,26,28,30,-1,-1,-1,-1,-1,-1,-1,-1,-1,-1,-1,-1,-1,-1,-1,-1],"split_conditions":[1E0,1E0,1E0,9E0,1E0,1E0,1E0,1E0,1E0,1E0,8.405172E-1,-3.851074E-1,2.3862067E-1,-1.25E-1,1E0,-3.8738826E-3,-9.968749E-3,-1.4318037E-2,6.847491E-4,6.509022E-3,-6.588724E-3,-4.907216E-3,9.187427E-3,1.18300235E-2,4.695874E-3,7.237729E-4,-8.52274E-3,1.452149E-2,1.1258813E-2,9.155458E-3,4.3801898E-5],"split_indices":[54,30,30,2,22,18,18,22,23,18,13,1,1,11,22,0,0,0,0,0,0,0,0,0,0,0,0,0,0,0,0],"split_type":[0,0,0,0,0,0,0,0,0,0,0,0,0,0,0,0,0,0,0,0,0,0,0,0,0,0,0,0,0,0,0],"sum_hessian":[3.054816E3,1.9048553E3,1.1499606E3,1.2280471E3,6.7680817E2,5.176308E2,6.323298E2,8.886544E2,3.3939273E2,3.6037555E2,3.1643262E2,4.3024237E2,8.738843E1,5.6660425E2,6.572558E1,4.0856082E2,4.8009357E2,3.2846936E2,1.09233885E1,3.101671E2,5.020845E1,2.834817E2,3.295093E1,1.5908261E2,2.7115976E2,5.0420853E1,3.6967575E1,2.985724E2,2.6803183E2,4.6058643E1,1.9666933E1],"tree_param":{"num_deleted":"0","num_feature":"68","num_nodes":"31","size_leaf_vector":"1"}},{"base_weights":[6.459118E-3,-5.3635174E-1,9.0349585E-1,-8.940905E-1,1.1215697E-1,5.266199E-1,1.2018754E0,-5.6383383E-1,-1.1541909E0,-5.724784E-1,3.360334E-1,1.116736E0,2.5762522E-1,1.2761643E0,5.371057E-1,-1.8343976E-3,-8.778962E-3,-1.4405908E-2,-9.51407E-3,-7.037972E-3,6.6516106E-3,4.892197E-3,-7.466087E-3,1.2167578E-2,3.4893325E-3,-1.5913174E-3,6.015469E-3,1.3889983E-2,1.0094294E-2,-1.458598E-3,8.455128E-3],"categories":[],"categories_nodes":[],"categories_segments":[],"categories_sizes":[],"default_left":[0,0,0,0,0,0,0,0,0,0,0,0,0,0,0,0,0,0,0,0,0,0,0,0,0,0,0,0,0,0,0],"id":22,"left_children":[1,3,5,7,9,11,13,15,17,19,21,23,25,27,29,-1,-1,-1,-1,-1,-1,-1,-1,-1,-1,-1,-1,-1,-1,-1,-1],"loss_changes":[1.4802141E3,4.3948303E2,1.2824078E2,1.0420801E2,1.03531044E2,8.0380585E1,3.0864075E1,6.432472E1,3.823413E1,2.7530128E1,8.473117E1,1.1772079E1,5.031455E1,1.5870544E1,1.4012901E1,0E0,0E0,0E0,0E0,0E0,0E0,0E0,0E0,0E0,0E0,0E0,0E0,0E0,0E0,0E0,0E0],"parents":[2147483647,0,0,1,1,2,2,3,3,4,4,5,5,6,6,7,7,8,8,9,9,10,10,11,11,12,12,13,13,14,14],"right_children":[2,4,6,8,10,12,14,16,18,20,22,24,26,28,30,-1,-1,-1,-1,-1,-1,-1,-1,-1,-1,-1,-1,-1,-1,-1,-1],"split_conditions":[1E0,1E0,1E0,1E0,-3.809524E-1,-4.2720208E-1,1E0,-6.731159E-2,-3.265306E-1,7.801724E-1,1E0,1E0,0E0,1E0,2E-1,-1.8343976E-3,-8.778962E-3,-1.4405908E-2,-9.51407E-3,-7.037972E-3,6.6516106E-3,4.892197E-3,-7.466087E-3,1.2167578E-2,3.4893325E-3,-1.5913174E-3,6.015469E-3,1.3889983E-2,1.0094294E-2,-1.458598E-3,8.455128E-3],"split_indices":[54,30,30,22,3,1,18,1,3,13,18,18,14,15,0,0,0,0,0,0,0,0,0,0,0,0,0,0,0,0,0],"split_type":[0,0,0,0,0,0,0,0,0,0,0,0,0,0,0,0,0,0,0,0,0,0,0,0,0,0,0,0,0,0,0],"sum_hessian":[3.0379504E3,1.8929183E3,1.1450322E3,1.2197084E3,6.732099E2,5.071847E2,6.3784753E2,5.387767E2,6.809317E2,1.6550938E2,5.0770053E2,1.5781694E2,3.4936774E2,5.7290497E2,6.4942535E1,2.4437386E2,2.944028E2,2.7973984E2,4.0119186E2,1.5002269E2,1.5486703E1,4.4524902E2,6.245151E1,1.391103E2,1.870664E1,1.5820076E2,1.9116698E2,3.9964142E2,1.7326357E2,2.0367004E1,4.457553E1],"tree_param":{"num_deleted":"0","num_feature":"68","num_nodes":"31","size_leaf_vector":"1"}},{"base_weights":[9.92788E-3,-4.6390676E-1,6.312757E-1,-9.9051195E-1,-1.3241617E-1,7.989822E-1,-4.1804212E-1,-6.039928E-1,-1.2292522E0,1.8960871E-1,-6.9988775E-1,9.033322E-1,-4.4779596E-1,-7.0622116E-1,7.121884E-1,-1.7864126E-3,-1.0601602E-2,-1.3574951E-2,-7.998851E-3,3.8844405E-3,-9.505641E-3,1.0225944E-3,-8.998952E-3,1.0219801E-2,-3.534021E-5,4.450256E-4,-9.394392E-3,-8.436161E-3,9.886118E-3,-1.3622029E-3,9.810715E-3],"categories":[],"categories_nodes":[],"categories_segments":[],"categories_sizes":[],"default_left":[0,0,0,0,0,0,0,0,0,0,0,0,0,0,0,0,0,0,0,0,0,0,0,0,0,0,0,0,0,0,0],"id":23,"left_children":[1,3,5,7,9,11,13,15,17,19,21,23,25,27,29,-1,-1,-1,-1,-1,-1,-1,-1,-1,-1,-1,-1,-1,-1,-1,-1],"loss_changes":[9.0054675E2,3.0280582E2,2.3321814E2,6.1105957E1,1.9495981E2,1.4889642E2,6.011358E1,4.984777E1,2.167511E1,1.547461E2,6.2050568E1,1.1336212E2,2.1538773E1,3.491011E1,8.729719E0,0E0,0E0,0E0,0E0,0E0,0E0,0E0,0E0,0E0,0E0,0E0,0E0,0E0,0E0,0E0,0E0],"parents":[2147483647,0,0,1,1,2,2,3,3,4,4,5,5,6,6,7,7,8,8,9,9,10,10,11,11,12,12,13,13,14,14],"right_children":[2,4,6,8,10,12,14,16,18,20,22,24,26,28,30,-1,-1,-1,-1,-1,-1,-1,-1,-1,-1,-1,-1,-1,-1,-1,-1],"split_conditions":[1E0,-2.3582767E-1,9E0,-1.7625019E-1,1E0,1E0,5.905172E-1,1.1E1,4E-1,1E0,-5.714286E-1,1E0,1E0,1E0,-2E-1,-1.7864126E-3,-1.0601602E-2,-1.3574951E-2,-7.998851E-3,3.8844405E-3,-9.505641E-3,1.0225944E-3,-8.998952E-3,1.0219801E-2,-3.534021E-5,4.450256E-4,-9.394392E-3,-8.436161E-3,9.886118E-3,-1.3622029E-3,9.810715E-3],"split_indices":[66,3,2,1,15,58,13,2,0,58,12,18,22,23,0,0,0,0,0,0,0,0,0,0,0,0,0,0,0,0,0],"split_type":[0,0,0,0,0,0,0,0,0,0,0,0,0,0,0,0,0,0,0,0,0,0,0,0,0,0,0,0,0,0,0],"sum_hessian":[3.0567603E3,1.7343857E3,1.3223746E3,6.6924176E2,1.065144E3,1.1403564E3,1.8201814E2,2.5688165E2,4.1236008E2,6.7995416E2,3.8518985E2,1.052539E3,8.7817505E1,1.4533635E2,3.6681793E1,1.3365096E2,1.23230705E2,3.1585825E2,9.6501816E1,5.795461E2,1.0040805E2,7.697275E1,3.082171E2,9.306521E2,1.2188687E2,4.433395E1,4.3483555E1,1.3490247E2,1.0433892E1,8.946435E0,2.7735357E1],"tree_param":{"num_deleted":"0","num_feature":"68","num_nodes":"31","size_leaf_vector":"1"}},{"base_weights":[7.395483E-3,-5.3207654E-1,8.9991564E-1,-8.8174295E-1,1.0150171E-1,1.0229819E0,7.464091E-2,-7.0550144E-1,-1.3403386E0,4.6863317E-1,-3.222468E-1,7.153506E-1,1.2466112E0,3.8311276E-1,-6.125505E-1,-4.6568043E-3,-1.086715E-2,-1.4136434E-2,-7.336211E-3,6.295218E-3,-5.0058844E-3,-4.7144745E-3,9.792087E-3,-1.0610786E-3,8.302469E-3,1.3641341E-2,9.568658E-3,3.5172116E-4,8.307606E-3,-1.0178265E-3,-1.1405759E-2],"categories":[],"categories_nodes":[],"categories_segments":[],"categories_sizes":[],"default_left":[0,0,0,0,0,0,0,0,0,0,0,0,0,0,0,0,0,0,0,0,0,0,0,0,0,0,0,0,0,0,0],"id":24,"left_children":[1,3,5,7,9,11,13,15,17,19,21,23,25,27,29,-1,-1,-1,-1,-1,-1,-1,-1,-1,-1,-1,-1,-1,-1,-1,-1],"loss_changes":[1.4671791E3,4.208449E2,1.1651337E2,9.7975464E1,1.0536512E2,6.7828125E1,3.2041782E1,8.051721E1,1.4025269E1,5.688411E1,6.153815E1,3.9995438E1,1.8345154E1,1.6196735E1,1.2525225E1,0E0,0E0,0E0,0E0,0E0,0E0,0E0,0E0,0E0,0E0,0E0,0E0,0E0,0E0,0E0,0E0],"parents":[2147483647,0,0,1,1,2,2,3,3,4,4,5,5,6,6,7,7,8,8,9,9,10,10,11,11,12,12,13,13,14,14],"right_children":[2,4,6,8,10,12,14,16,18,20,22,24,26,28,30,-1,-1,-1,-1,-1,-1,-1,-1,-1,-1,-1,-1,-1,-1,-1,-1],"split_conditions":[1E0,1E0,1E0,9E0,1E0,1E0,1E0,1E0,1E0,1E0,8.405172E-1,-3.265306E-1,1E0,1E0,7.456303E-2,-4.6568043E-3,-1.086715E-2,-1.4136434E-2,-7.336211E-3,6.295218E-3,-5.0058844E-3,-4.7144745E-3,9.792087E-3,-1.0610786E-3,8.302469E-3,1.3641341E-2,9.568658E-3,3.5172116E-4,8.307606E-3,-1.0178265E-3,-1.1405759E-2],"split_indices":[54,30,18,2,22,30,22,15,64,18,13,3,15,30,6,0,0,0,0,0,0,0,0,0,0,0,0,0,0,0,0],"split_type":[0,0,0,0,0,0,0,0,0,0,0,0,0,0,0,0,0,0,0,0,0,0,0,0,0,0,0,0,0,0,0],"sum_hessian":[3.0451719E3,1.8982211E3,1.1469508E3,1.2229137E3,6.7530743E2,9.979025E2,1.4904825E2,8.852458E2,3.3766788E2,3.617687E2,3.1353873E2,4.2182553E2,5.7607697E2,1.031762E2,4.5872047E1,5.447597E2,3.404861E2,3.0008145E2,3.758644E1,3.1056592E2,5.1202774E1,2.8186328E2,3.167545E1,5.17699E1,3.7005563E2,4.0720404E2,1.6887294E2,5.8660255E1,4.451594E1,2.392335E1,2.1948696E1],"tree_param":{"num_deleted":"0","num_feature":"68","num_nodes":"31","size_leaf_vector":"1"}},{"base_weights":[-6.74049E-3,-5.340744E-1,8.7907803E-1,-8.799823E-1,8.910909E-2,5.1768106E-1,1.170301E0,-5.707523E-1,-1.1303484E0,4.8515818E-1,-3.5771278E-1,9.1671705E-1,1.4102654E-1,1.2429472E0,5.1297426E-1,-3.8152512E-3,-1.1955326E-2,-9.875017E-3,-1.4642539E-2,-2.6287E-3,7.189743E-3,-4.956968E-3,8.43722E-3,1.006752E-2,-2.2034307E-3,4.90452E-3,-3.5378085E-3,1.3618938E-2,9.479905E-3,6.663156E-4,9.691541E-3],"categories":[],"categories_nodes":[],"categories_segments":[],"categories_sizes":[],"default_left":[0,0,0,0,0,0,0,0,0,0,0,0,0,0,0,0,0,0,0,0,0,0,0,0,0,0,0,0,0,0,0],"id":25,"left_children":[1,3,5,7,9,11,13,15,17,19,21,23,25,27,29,-1,-1,-1,-1,-1,-1,-1,-1,-1,-1,-1,-1,-1,-1,-1,-1],"loss_changes":[1.4206558E3,4.1102808E2,1.1883862E2,9.427399E1,1.20752235E2,7.625636E1,2.9335205E1,6.4632385E1,3.0819824E1,6.3439354E1,5.3590366E1,2.5467422E1,4.5581223E1,1.8513977E1,1.3000822E1,0E0,0E0,0E0,0E0,0E0,0E0,0E0,0E0,0E0,0E0,0E0,0E0,0E0,0E0,0E0,0E0],"parents":[2147483647,0,0,1,1,2,2,3,3,4,4,5,5,6,6,7,7,8,8,9,9,10,10,11,11,12,12,13,13,14,14],"right_children":[2,4,6,8,10,12,14,16,18,20,22,24,26,28,30,-1,-1,-1,-1,-1,-1,-1,-1,-1,-1,-1,-1,-1,-1,-1,-1],"split_conditions":[1E0,1E0,1E0,1E0,1E0,-1.9991659E-1,1E0,1E0,9E0,-3.7188208E-1,8.405172E-1,9E0,1E0,1E0,4E-1,-3.8152512E-3,-1.1955326E-2,-9.875017E-3,-1.4642539E-2,-2.6287E-3,7.189743E-3,-4.956968E-3,8.43722E-3,1.006752E-2,-2.2034307E-3,4.90452E-3,-3.5378085E-3,1.3618938E-2,9.479905E-3,6.663156E-4,9.691541E-3],"split_indices":[54,30,30,22,22,1,18,18,2,3,13,2,22,15,0,0,0,0,0,0,0,0,0,0,0,0,0,0,0,0,0],"split_type":[0,0,0,0,0,0,0,0,0,0,0,0,0,0,0,0,0,0,0,0,0,0,0,0,0,0,0,0,0,0,0],"sum_hessian":[3.0392888E3,1.9053925E3,1.1338962E3,1.225016E3,6.8037646E2,5.0722556E2,6.266708E2,5.495458E2,6.7547015E2,3.6063495E2,3.197415E2,2.4559888E2,2.6162668E2,5.635028E2,6.316794E1,4.2303262E2,1.2651318E2,4.7585428E2,1.9961589E2,8.585194E1,2.7478302E2,2.873293E2,3.2412174E1,2.2768489E2,1.791399E1,1.5334534E2,1.08281334E2,3.9898697E2,1.6451585E2,3.25075E1,3.0660439E1],"tree_param":{"num_deleted":"0","num_feature":"68","num_nodes":"31","size_leaf_vector":"1"}},{"base_weights":[1.9025016E-3,-4.5578378E-1,6.1346E-1,-2.4388103E-1,-1.214543E0,-2.641039E-1,7.872828E-1,1.2598178E-1,-6.506635E-1,-1.2646991E0,1.7344458E-1,-4.8445725E-1,6.270375E-1,8.9682907E-1,-4.3290704E-1,3.2877587E-3,-6.5547256E-3,-5.0599854E-3,-1.3281269E-2,-1.3493237E-2,-6.1401254E-3,7.33575E-3,-7.847384E-3,-7.400122E-4,-8.923198E-3,9.324427E-3,-2.0708747E-3,1.1044636E-2,4.8668566E-3,-1.1760866E-3,-1.0798664E-2],"categories":[],"categories_nodes":[],"categories_segments":[],"categories_sizes":[],"default_left":[0,0,0,0,0,0,0,0,0,0,0,0,0,0,0,0,0,0,0,0,0,0,0,0,0,0,0,0,0,0,0],"id":26,"left_children":[1,3,5,7,9,11,13,15,17,19,21,23,25,27,29,-1,-1,-1,-1,-1,-1,-1,-1,-1,-1,-1,-1,-1,-1,-1,-1],"loss_changes":[8.516851E2,2.795218E2,1.9888617E2,2.0494951E2,2.6651123E1,4.2734726E1,1.4573529E2,1.13371765E2,6.2897064E1,1.9355713E1,8.154466E0,2.9030964E1,1.1216938E1,8.446271E1,1.8283674E1,0E0,0E0,0E0,0E0,0E0,0E0,0E0,0E0,0E0,0E0,0E0,0E0,0E0,0E0,0E0,0E0],"parents":[2147483647,0,0,1,1,2,2,3,3,4,4,5,5,6,6,7,7,8,8,9,9,10,10,11,11,12,12,13,13,14,14],"right_children":[2,4,6,8,10,12,14,16,18,20,22,24,26,28,30,-1,-1,-1,-1,-1,-1,-1,-1,-1,-1,-1,-1,-1,-1,-1,-1],"split_conditions":[1E0,9E0,-3.809524E-1,1E0,1E0,1E0,1E0,1E0,1E0,1E0,5.0464463E-1,1E0,1E0,1E0,1E0,3.2877587E-3,-6.5547256E-3,-5.0599854E-3,-1.3281269E-2,-1.3493237E-2,-6.1401254E-3,7.33575E-3,-7.847384E-3,-7.400122E-4,-8.923198E-3,9.324427E-3,-2.0708747E-3,1.1044636E-2,4.8668566E-3,-1.1760866E-3,-1.0798664E-2],"split_indices":[30,2,3,22,23,19,58,18,18,19,10,22,15,15,15,0,0,0,0,0,0,0,0,0,0,0,0,0,0,0,0],"split_type":[0,0,0,0,0,0,0,0,0,0,0,0,0,0,0,0,0,0,0,0,0,0,0,0,0,0,0,0,0,0,0],"sum_hessian":[3.0408044E3,1.7393439E3,1.3014607E3,1.360665E3,3.7867877E2,2.1508098E2,1.0863796E3,7.130353E2,6.4762976E2,3.6555786E2,1.3120917E1,1.7280716E2,4.2273823E1,9.9712476E2,8.925493E1,5.665817E2,1.4645354E2,5.351098E2,1.1251998E2,3.225368E2,4.3021053E1,8.428331E0,4.6925864E0,8.671859E1,8.608856E1,3.0857746E1,1.1416076E1,6.6086816E2,3.362566E2,6.080375E1,2.8451178E1],"tree_param":{"num_deleted":"0","num_feature":"68","num_nodes":"31","size_leaf_vector":"1"}},{"base_weights":[-7.5094616E-3,-5.4322106E-1,8.86958E-1,-8.812605E-1,7.62509E-2,5.385417E-1,1.1758527E0,-7.07408E-1,-1.3320063E0,3.6914077E-1,-4.824943E-1,7.063027E-1,-2.6439142E-1,1.242542E0,5.690682E-1,-4.441592E-3,-1.1125822E-2,-1.372791E-2,-1.2931095E-3,5.866155E-3,-4.104655E-3,5.3673694E-3,-6.8914923E-3,9.022926E-3,2.2288258E-3,1.0066389E-3,-8.448147E-3,1.094023E-2,1.40093975E-2,8.3251465E-3,-7.6586416E-4],"categories":[],"categories_nodes":[],"categories_segments":[],"categories_sizes":[],"default_left":[0,0,0,0,0,0,0,0,0,0,0,0,0,0,0,0,0,0,0,0,0,0,0,0,0,0,0,0,0,0,0],"id":27,"left_children":[1,3,5,7,9,11,13,15,17,19,21,23,25,27,29,-1,-1,-1,-1,-1,-1,-1,-1,-1,-1,-1,-1,-1,-1,-1,-1],"loss_changes":[1.4662408E3,4.0081482E2,1.1473584E2,9.608649E1,1.1089522E2,7.042113E1,2.4615234E1,9.504068E1,1.667212E1,7.559282E1,4.946907E1,4.068808E1,1.9332968E1,1.17109375E1,1.0917601E1,0E0,0E0,0E0,0E0,0E0,0E0,0E0,0E0,0E0,0E0,0E0,0E0,0E0,0E0,0E0,0E0],"parents":[2147483647,0,0,1,1,2,2,3,3,4,4,5,5,6,6,7,7,8,8,9,9,10,10,11,11,12,12,13,13,14,14],"right_children":[2,4,6,8,10,12,14,16,18,20,22,24,26,28,30,-1,-1,-1,-1,-1,-1,-1,-1,-1,-1,-1,-1,-1,-1,-1,-1],"split_conditions":[1E0,1E0,1E0,9E0,1E0,1E0,1E0,1E0,1E0,9E0,-7.1428573E-1,1E0,1E0,4E-1,1E0,-4.441592E-3,-1.1125822E-2,-1.372791E-2,-1.2931095E-3,5.866155E-3,-4.104655E-3,5.3673694E-3,-6.8914923E-3,9.022926E-3,2.2288258E-3,1.0066389E-3,-8.448147E-3,1.094023E-2,1.40093975E-2,8.3251465E-3,-7.6586416E-4],"split_indices":[54,30,30,2,15,18,18,15,23,2,12,15,15,0,22,0,0,0,0,0,0,0,0,0,0,0,0,0,0,0,0],"split_type":[0,0,0,0,0,0,0,0,0,0,0,0,0,0,0,0,0,0,0,0,0,0,0,0,0,0,0,0,0,0,0],"sum_hessian":[3.057912E3,1.9127355E3,1.1451766E3,1.2371907E3,6.7554486E2,5.204097E2,6.2476697E2,8.9468164E2,3.42509E2,4.4343765E2,2.3210721E2,4.30569E2,8.984069E1,5.6195667E2,6.2810287E1,5.435947E2,3.5108688E2,3.311383E2,1.1370708E1,3.4691238E2,9.6525246E1,3.8858433E1,1.9324876E2,3.0574594E2,1.2482308E2,5.5660057E1,3.4180637E1,2.9410306E2,2.678536E2,4.440308E1,1.8407206E1],"tree_param":{"num_deleted":"0","num_feature":"68","num_nodes":"31","size_leaf_vector":"1"}},{"base_weights":[4.37439E-4,-5.278562E-1,8.8722414E-1,-8.660741E-1,9.316568E-2,5.558519E-1,1.1487093E0,-5.514773E-1,-1.1191083E0,3.814101E-1,-4.6968803E-1,9.6335316E-1,1.9706193E-1,8.9239323E-1,1.3263333E0,-3.792003E-3,-1.1352081E-2,-8.771799E-3,-1.2675972E-2,8.329282E-3,8.520263E-4,3.0664206E-3,-7.2368905E-3,1.0725457E-2,7.8141637E-4,4.5850417E-3,-3.2939974E-3,1.0006127E-2,7.681646E-4,1.3846689E-2,7.2270012E-3],"categories":[],"categories_nodes":[],"categories_segments":[],"categories_sizes":[],"default_left":[0,0,0,0,0,0,0,0,0,0,0,0,0,0,0,0,0,0,0,0,0,0,0,0,0,0,0,0,0,0,0],"id":28,"left_children":[1,3,5,7,9,11,13,15,17,19,21,23,25,27,29,-1,-1,-1,-1,-1,-1,-1,-1,-1,-1,-1,-1,-1,-1,-1,-1],"loss_changes":[1.4199393E3,3.9902924E2,9.740802E1,9.7277954E1,1.0897803E2,7.306198E1,2.756842E1,5.4896866E1,2.3338013E1,5.9316544E1,4.509514E1,2.2565735E1,3.69954E1,2.3008575E1,1.2062317E1,0E0,0E0,0E0,0E0,0E0,0E0,0E0,0E0,0E0,0E0,0E0,0E0,0E0,0E0,0E0,0E0],"parents":[2147483647,0,0,1,1,2,2,3,3,4,4,5,5,6,6,7,7,8,8,9,9,10,10,11,11,12,12,13,13,14,14],"right_children":[2,4,6,8,10,12,14,16,18,20,22,24,26,28,30,-1,-1,-1,-1,-1,-1,-1,-1,-1,-1,-1,-1,-1,-1,-1,-1],"split_conditions":[1E0,1E0,1E0,1E0,1E0,-2.2649564E-1,0E0,1E0,-1.18648216E-1,-2.1198684E-1,-5.714286E-1,3.328764E1,1E0,1E0,1.88125E1,-3.792003E-3,-1.1352081E-2,-8.771799E-3,-1.2675972E-2,8.329282E-3,8.520263E-4,3.0664206E-3,-7.2368905E-3,1.0725457E-2,7.8141637E-4,4.5850417E-3,-3.2939974E-3,1.0006127E-2,7.681646E-4,1.3846689E-2,7.2270012E-3],"split_indices":[54,66,66,22,15,1,14,18,1,1,12,6,15,18,11,0,0,0,0,0,0,0,0,0,0,0,0,0,0,0,0],"split_type":[0,0,0,0,0,0,0,0,0,0,0,0,0,0,0,0,0,0,0,0,0,0,0,0,0,0,0,0,0,0,0],"sum_hessian":[3.0289258E3,1.898387E3,1.1305387E3,1.22878E3,6.696069E2,5.0001303E2,6.305257E2,5.4917365E2,6.7960645E2,4.4304193E2,2.2656493E2,2.3332526E2,2.6668777E2,2.605579E2,3.699678E2,4.2530313E2,1.238705E2,2.6110428E2,4.1850214E2,1.7479088E2,2.6825104E2,5.5802532E1,1.7076239E2,2.075161E2,2.5809153E1,1.782817E2,8.840608E1,2.2983415E2,3.072375E1,3.361847E2,3.3783108E1],"tree_param":{"num_deleted":"0","num_feature":"68","num_nodes":"31","size_leaf_vector":"1"}},{"base_weights":[-5.4179383E-3,-5.2326775E-1,8.638388E-1,-8.490276E-1,7.4720375E-2,5.128043E-1,1.1526002E0,-6.814946E-1,-1.2959332E0,3.5688773E-1,-4.511437E-1,6.6775286E-1,-2.2617832E-1,1.2191901E0,5.916412E-1,-4.5106066E-3,-1.0457733E-2,-1.346466E-2,1.9251588E-3,5.7378095E-3,-4.5406674E-3,4.621063E-3,-6.425403E-3,3.172272E-3,9.065379E-3,4.500107E-3,-5.1540183E-3,1.3126756E-2,9.955759E-3,-5.314767E-4,8.827771E-3],"categories":[],"categories_nodes":[],"categories_segments":[],"categories_sizes":[],"default_left":[0,0,0,0,0,0,0,0,0,0,0,0,0,0,0,0,0,0,0,0,0,0,0,0,0,0,0,0,0,0,0],"id":29,"left_children":[1,3,5,7,9,11,13,15,17,19,21,23,25,27,29,-1,-1,-1,-1,-1,-1,-1,-1,-1,-1,-1,-1,-1,-1,-1,-1],"loss_changes":[1.3680065E3,3.7105426E2,1.14414795E2,9.142853E1,9.995198E1,5.899147E1,2.2501831E1,7.49816E1,2.5461182E1,7.734242E1,4.1424152E1,3.5289474E1,1.7797668E1,1.029071E1,1.27954235E1,0E0,0E0,0E0,0E0,0E0,0E0,0E0,0E0,0E0,0E0,0E0,0E0,0E0,0E0,0E0,0E0],"parents":[2147483647,0,0,1,1,2,2,3,3,4,4,5,5,6,6,7,7,8,8,9,9,10,10,11,11,12,12,13,13,14,14],"right_children":[2,4,6,8,10,12,14,16,18,20,22,24,26,28,30,-1,-1,-1,-1,-1,-1,-1,-1,-1,-1,-1,-1,-1,-1,-1,-1],"split_conditions":[1E0,1E0,1E0,9E0,1E0,1E0,1E0,1E0,1E0,9E0,-7.1428573E-1,0E0,-3.846154E-2,1E0,2E-1,-4.5106066E-3,-1.0457733E-2,-1.346466E-2,1.9251588E-3,5.7378095E-3,-4.5406674E-3,4.621063E-3,-6.425403E-3,3.172272E-3,9.065379E-3,4.500107E-3,-5.1540183E-3,1.3126756E-2,9.955759E-3,-5.314767E-4,8.827771E-3],"split_indices":[54,30,30,2,15,18,18,15,23,2,12,14,17,15,0,0,0,0,0,0,0,0,0,0,0,0,0,0,0,0,0],"split_type":[0,0,0,0,0,0,0,0,0,0,0,0,0,0,0,0,0,0,0,0,0,0,0,0,0,0,0,0,0,0,0],"sum_hessian":[3.0370352E3,1.9034652E3,1.1335698E3,1.2319363E3,6.71529E2,5.128711E2,6.206988E2,8.9787274E2,3.3406354E2,4.3723788E2,2.3429109E2,4.2405283E2,8.881824E1,5.537868E2,6.691193E1,5.51344E2,3.4652875E2,3.2318674E2,1.0876781E1,3.4520407E2,9.203384E1,4.034939E1,1.9394171E2,1.7276707E2,2.5128575E2,2.6442102E1,6.2376137E1,3.87088E2,1.666988E2,2.1068417E1,4.5843513E1],"tree_param":{"num_deleted":"0","num_feature":"68","num_nodes":"31","size_leaf_vector":"1"}},{"base_weights":[3.479095E-3,-4.541908E-1,6.17701E-1,-9.5131785E-1,-1.2449399E-1,7.686874E-1,-3.1910512E-1,-5.469778E-1,-1.1971704E0,3.9314377E-1,-4.1025424E-1,8.643889E-1,-3.584254E-1,-6.458632E-1,3.3025768E-1,-1.7995763E-3,-9.891277E-3,-1.2891495E-2,-5.9554325E-3,5.8106957E-3,-5.6311134E-3,-6.4575216E-3,2.1218602E-3,9.69428E-3,7.4523804E-4,4.696002E-3,-7.4419677E-3,2.13185E-3,-8.218481E-3,6.097347E-3,-6.4460402E-3],"categories":[],"categories_nodes":[],"categories_segments":[],"categories_sizes":[],"default_left":[0,0,0,0,0,0,0,0,0,0,0,0,0,0,0,0,0,0,0,0,0,0,0,0,0,0,0,0,0,0,0],"id":30,"left_children":[1,3,5,7,9,11,13,15,17,19,21,23,25,27,29,-1,-1,-1,-1,-1,-1,-1,-1,-1,-1,-1,-1,-1,-1,-1,-1],"loss_changes":[8.547203E2,2.854459E2,1.8387152E2,6.839313E1,1.5528592E2,1.2093848E2,3.8597485E1,4.2741592E1,2.3088623E1,6.74513E1,9.925385E1,8.547357E1,2.8532642E1,1.8419804E1,1.7072033E1,0E0,0E0,0E0,0E0,0E0,0E0,0E0,0E0,0E0,0E0,0E0,0E0,0E0,0E0,0E0,0E0],"parents":[2147483647,0,0,1,1,2,2,3,3,4,4,5,5,6,6,7,7,8,8,9,9,10,10,11,11,12,12,13,13,14,14],"right_children":[2,4,6,8,10,12,14,16,18,20,22,24,26,28,30,-1,-1,-1,-1,-1,-1,-1,-1,-1,-1,-1,-1,-1,-1,-1,-1],"split_conditions":[1E0,-2.1768707E-1,9E0,-1.7625019E-1,-3.1284997E-1,1E0,4E-1,1.1E1,1E0,1E0,4E-1,1E0,-2.5E-1,-4.2857143E-1,1E0,-1.7995763E-3,-9.891277E-3,-1.2891495E-2,-5.9554325E-3,5.8106957E-3,-5.6311134E-3,-6.4575216E-3,2.1218602E-3,9.69428E-3,7.4523804E-4,4.696002E-3,-7.4419677E-3,2.13185E-3,-8.218481E-3,6.097347E-3,-6.4460402E-3],"split_indices":[30,3,2,1,1,58,0,2,19,18,0,18,11,12,15,0,0,0,0,0,0,0,0,0,0,0,0,0,0,0,0],"split_type":[0,0,0,0,0,0,0,0,0,0,0,0,0,0,0,0,0,0,0,0,0,0,0,0,0,0,0,0,0,0,0],"sum_hessian":[3.0385117E3,1.7412957E3,1.2972161E3,6.935915E2,1.0477042E3,1.117316E3,1.7989998E2,2.6348203E2,4.3010947E2,3.7252374E2,6.751804E2,1.030086E3,8.722996E1,1.1968175E2,6.0218227E1,1.447417E2,1.1874032E2,3.7208142E2,5.8028057E1,3.1166653E2,6.0857204E1,4.89821E2,1.8535942E2,9.089794E2,1.21106766E2,2.7654533E1,5.9575428E1,2.0313337E1,9.9368416E1,4.70922E1,1.3126026E1],"tree_param":{"num_deleted":"0","num_feature":"68","num_nodes":"31","size_leaf_vector":"1"}},{"base_weights":[-1.50405E-2,-4.5681533E-1,5.7672435E-1,-9.682689E-1,-1.3661057E-1,7.316127E-1,-3.864259E-1,-5.9696156E-1,-1.1953512E0,2.2654353E-2,-1.0275774E0,8.277307E-1,-3.5947898E-1,-6.369201E-1,6.072664E-1,-1.9853015E-3,-1.062834E-2,-1.2364175E-2,3.1419392E-4,2.2451885E-3,-7.7908393E-3,-7.098271E-3,-1.4216776E-2,9.40179E-3,-9.460318E-5,5.2793515E-3,-6.9733616E-3,-1.1396961E-3,-9.509728E-3,1.0367261E-2,-2.6650056E-3],"categories":[],"categories_nodes":[],"categories_segments":[],"categories_sizes":[],"default_left":[0,0,0,0,0,0,0,0,0,0,0,0,0,0,0,0,0,0,0,0,0,0,0,0,0,0,0,0,0,0,0],"id":31,"left_children":[1,3,5,7,9,11,13,15,17,19,21,23,25,27,29,-1,-1,-1,-1,-1,-1,-1,-1,-1,-1,-1,-1,-1,-1,-1,-1],"loss_changes":[7.913607E2,2.83709E2,1.933082E2,5.5537964E1,1.5143471E2,1.17231384E2,4.516801E1,4.7153236E1,2.0843811E1,1.468361E2,1.9256607E1,9.65058E1,2.7642357E1,2.3569828E1,1.4060174E1,0E0,0E0,0E0,0E0,0E0,0E0,0E0,0E0,0E0,0E0,0E0,0E0,0E0,0E0,0E0,0E0],"parents":[2147483647,0,0,1,1,2,2,3,3,4,4,5,5,6,6,7,7,8,8,9,9,10,10,11,11,12,12,13,13,14,14],"right_children":[2,4,6,8,10,12,14,16,18,20,22,24,26,28,30,-1,-1,-1,-1,-1,-1,-1,-1,-1,-1,-1,-1,-1,-1,-1,-1],"split_conditions":[1E0,-2.3582767E-1,9E0,-1.7625019E-1,1E0,1E0,1E0,1.1E1,1E0,1E0,5.0699264E-1,1E0,-3.125E-1,-2.1198684E-1,1E0,-1.9853015E-3,-1.062834E-2,-1.2364175E-2,3.1419392E-4,2.2451885E-3,-7.7908393E-3,-7.098271E-3,-1.4216776E-2,9.40179E-3,-9.460318E-5,5.2793515E-3,-6.9733616E-3,-1.1396961E-3,-9.509728E-3,1.0367261E-2,-2.6650056E-3],"split_indices":[66,3,2,1,58,58,19,2,23,18,6,18,11,1,15,0,0,0,0,0,0,0,0,0,0,0,0,0,0,0,0],"split_type":[0,0,0,0,0,0,0,0,0,0,0,0,0,0,0,0,0,0,0,0,0,0,0,0,0,0,0,0,0,0,0],"sum_hessian":[3.0250754E3,1.7321718E3,1.2929037E3,6.6614087E2,1.0660309E3,1.1139974E3,1.7890631E2,2.5417027E2,4.119706E2,9.051969E2,1.6083403E2,1.0240286E3,8.996886E1,1.4317355E2,3.573276E1,1.3777022E2,1.16400055E2,3.9861893E2,1.3351684E1,7.237009E2,1.8149599E2,9.059297E1,7.024106E1,9.0266327E2,1.2136528E2,2.4652945E1,6.531591E1,5.4231655E1,8.8941895E1,2.3832499E1,1.1900263E1],"tree_param":{"num_deleted":"0","num_feature":"68","num_nodes":"31","size_leaf_vector":"1"}},{"base_weights":[-1.5702287E-3,-5.1020485E-1,8.6063576E-1,-8.398982E-1,7.742483E-2,9.887266E-1,5.079777E-2,-5.26588E-1,-1.0879844E0,2.2216034E-1,-8.8475204E-1,6.954665E-1,1.2102304E0,3.7033638E-1,-6.39955E-1,-3.5633128E-3,-1.1350369E-2,-8.297921E-3,-1.2412861E-2,5.904688E-3,-1.813913E-3,-2.986951E-3,-1.2084127E-2,1.1305085E-2,3.666331E-3,1.0245764E-2,1.3342778E-2,3.6040485E-5,7.792934E-3,1.298342E-3,-1.1074134E-2],"categories":[],"categories_nodes":[],"categories_segments":[],"categories_sizes":[],"default_left":[0,0,0,0,0,0,0,0,0,0,0,0,0,0,0,0,0,0,0,0,0,0,0,0,0,0,0,0,0,0,0],"id":32,"left_children":[1,3,5,7,9,11,13,15,17,19,21,23,25,27,29,-1,-1,-1,-1,-1,-1,-1,-1,-1,-1,-1,-1,-1,-1,-1,-1],"loss_changes":[1.323351E3,3.6776678E2,1.16092896E2,9.3935425E1,9.5318825E1,6.1951843E1,3.42195E1,5.545778E1,2.579181E1,8.847387E1,1.6618317E1,5.9427917E1,1.128479E1,1.5879655E1,1.7798382E1,0E0,0E0,0E0,0E0,0E0,0E0,0E0,0E0,0E0,0E0,0E0,0E0,0E0,0E0,0E0,0E0],"parents":[2147483647,0,0,1,1,2,2,3,3,4,4,5,5,6,6,7,7,8,8,9,9,10,10,11,11,12,12,13,13,14,14],"right_children":[2,4,6,8,10,12,14,16,18,20,22,24,26,28,30,-1,-1,-1,-1,-1,-1,-1,-1,-1,-1,-1,-1,-1,-1,-1,-1],"split_conditions":[1E0,1E0,1E0,1E0,1E0,1E0,1E0,1E0,-1.3595925E-1,1E0,-6.25E-2,-2.951391E-1,0E0,1E0,-1.9233863E-1,-3.5633128E-3,-1.1350369E-2,-8.297921E-3,-1.2412861E-2,5.904688E-3,-1.813913E-3,-2.986951E-3,-1.2084127E-2,1.1305085E-2,3.666331E-3,1.0245764E-2,1.3342778E-2,3.6040485E-5,7.792934E-3,1.298342E-3,-1.1074134E-2],"split_indices":[54,30,18,22,18,30,22,18,1,22,11,1,14,19,1,0,0,0,0,0,0,0,0,0,0,0,0,0,0,0,0],"split_type":[0,0,0,0,0,0,0,0,0,0,0,0,0,0,0,0,0,0,0,0,0,0,0,0,0,0,0,0,0,0,0],"sum_hessian":[3.015574E3,1.8969368E3,1.1186372E3,1.2148872E3,6.8204956E2,9.656767E2,1.5296056E2,5.3824963E2,6.766376E2,5.93536E2,8.851358E1,4.1731363E2,5.483631E2,1.0489879E2,4.8061764E1,4.2180533E2,1.1644431E2,2.5446974E2,4.2216782E2,3.1007626E2,2.8345972E2,3.2175617E1,5.633796E1,1.7859587E2,2.3871776E2,2.233497E2,3.2501337E2,5.583634E1,4.9062443E1,1.8431637E1,2.9630125E1],"tree_param":{"num_deleted":"0","num_feature":"68","num_nodes":"31","size_leaf_vector":"1"}},{"base_weights":[-1.0493548E-2,-5.255658E-1,8.5398E-1,-8.580941E-1,7.887052E-2,5.081932E-1,1.1369739E0,-5.371579E-1,-1.0739367E0,4.6082416E-1,-3.3224148E-1,1.0756085E0,2.6946354E-1,1.2052964E0,5.2004606E-1,-1.9331836E-3,-8.382961E-3,-1.358349E-2,-8.710949E-3,-2.4439895E-3,7.057355E-3,-4.6256436E-3,8.696486E-3,1.1767232E-2,1.9570189E-3,5.8422545E-3,-2.1417884E-3,1.2606659E-2,6.971973E-3,8.584005E-3,1.3761055E-3],"categories":[],"categories_nodes":[],"categories_segments":[],"categories_sizes":[],"default_left":[0,0,0,0,0,0,0,0,0,0,0,0,0,0,0,0,0,0,0,0,0,0,0,0,0,0,0,0,0,0,0],"id":33,"left_children":[1,3,5,7,9,11,13,15,17,19,21,23,25,27,29,-1,-1,-1,-1,-1,-1,-1,-1,-1,-1,-1,-1,-1,-1,-1,-1],"loss_changes":[1.3450098E3,3.8051758E2,1.0978552E2,8.40155E1,1.0578284E2,6.871332E1,2.5481628E1,5.0889038E1,4.0880615E1,6.0473312E1,5.1239353E1,1.3161636E1,5.4911068E1,1.4788391E1,8.100956E0,0E0,0E0,0E0,0E0,0E0,0E0,0E0,0E0,0E0,0E0,0E0,0E0,0E0,0E0,0E0,0E0],"parents":[2147483647,0,0,1,1,2,2,3,3,4,4,5,5,6,6,7,7,8,8,9,9,10,10,11,11,12,12,13,13,14,14],"right_children":[2,4,6,8,10,12,14,16,18,20,22,24,26,28,30,-1,-1,-1,-1,-1,-1,-1,-1,-1,-1,-1,-1,-1,-1,-1,-1],"split_conditions":[1E0,1E0,1E0,-1.18648216E-1,1E0,-4.4389838E-1,1.6625E1,1E0,-3.0839002E-1,-3.446712E-1,8.405172E-1,1E0,1E0,1E0,-9.6280135E-2,-1.9331836E-3,-8.382961E-3,-1.358349E-2,-8.710949E-3,-2.4439895E-3,7.057355E-3,-4.6256436E-3,8.696486E-3,1.1767232E-2,1.9570189E-3,5.8422545E-3,-2.1417884E-3,1.2606659E-2,6.971973E-3,8.584005E-3,1.3761055E-3],"split_indices":[54,30,30,1,22,1,11,22,3,3,13,18,22,18,1,0,0,0,0,0,0,0,0,0,0,0,0,0,0,0,0],"split_type":[0,0,0,0,0,0,0,0,0,0,0,0,0,0,0,0,0,0,0,0,0,0,0,0,0,0,0,0,0,0,0],"sum_hessian":[3.018678E3,1.891859E3,1.1268188E3,1.2201683E3,6.716907E2,5.0840305E2,6.1841583E2,4.9204123E2,7.2812714E2,3.4813055E2,3.235601E2,1.4951901E2,3.5888403E2,5.558984E2,6.2517464E1,2.304993E2,2.6154196E2,3.007448E2,4.273823E2,8.97364E1,2.5839417E2,2.9246298E2,3.1097103E1,1.3380539E2,1.5713618E1,2.1727205E2,1.4161198E2,4.9993723E2,5.596116E1,3.251007E1,3.0007393E1],"tree_param":{"num_deleted":"0","num_feature":"68","num_nodes":"31","size_leaf_vector":"1"}},{"base_weights":[-1.0895923E-2,-5.011922E-1,8.184727E-1,-8.2395303E-1,9.0445116E-2,4.9857214E-1,1.0817382E0,-5.1026356E-1,-1.075718E0,4.5792434E-1,-3.3152232E-1,8.3121663E-1,9.703843E-2,1.2757585E0,8.761519E-1,-3.3432299E-3,-1.1339714E-2,-7.8470465E-3,-1.2467098E-2,6.1893845E-3,-5.2790437E-3,-4.6236906E-3,8.618572E-3,9.6018445E-3,1.2193796E-3,6.254941E-3,-1.7634461E-3,1.3390098E-2,6.90397E-3,5.7777134E-3,1.0915575E-2],"categories":[],"categories_nodes":[],"categories_segments":[],"categories_sizes":[],"default_left":[0,0,0,0,0,0,0,0,0,0,0,0,0,0,0,0,0,0,0,0,0,0,0,0,0,0,0,0,0,0,0],"id":34,"left_children":[1,3,5,7,9,11,13,15,17,19,21,23,25,27,29,-1,-1,-1,-1,-1,-1,-1,-1,-1,-1,-1,-1,-1,-1,-1,-1],"loss_changes":[1.2210001E3,3.6042633E2,9.3414734E1,9.588757E1,1.0357898E2,6.743541E1,2.325824E1,5.949066E1,3.2684937E1,5.698401E1,4.8970394E1,2.5159348E1,3.336136E1,1.063501E1,1.8645096E1,0E0,0E0,0E0,0E0,0E0,0E0,0E0,0E0,0E0,0E0,0E0,0E0,0E0,0E0,0E0,0E0],"parents":[2147483647,0,0,1,1,2,2,3,3,4,4,5,5,6,6,7,7,8,8,9,9,10,10,11,11,12,12,13,13,14,14],"right_children":[2,4,6,8,10,12,14,16,18,20,22,24,26,28,30,-1,-1,-1,-1,-1,-1,-1,-1,-1,-1,-1,-1,-1,-1,-1,-1],"split_conditions":[1E0,1E0,1E0,1E0,1E0,-5.0318222E-2,-2.5E-1,1E0,-1.4543028E-1,1E0,8.405172E-1,1E0,-3.846154E-2,1E0,0E0,-3.3432299E-3,-1.1339714E-2,-7.8470465E-3,-1.2467098E-2,6.1893845E-3,-5.2790437E-3,-4.6236906E-3,8.618572E-3,9.6018445E-3,1.2193796E-3,6.254941E-3,-1.7634461E-3,1.3390098E-2,6.90397E-3,5.7777134E-3,1.0915575E-2],"split_indices":[54,30,30,22,22,1,11,18,1,18,13,18,17,18,14,0,0,0,0,0,0,0,0,0,0,0,0,0,0,0,0],"split_type":[0,0,0,0,0,0,0,0,0,0,0,0,0,0,0,0,0,0,0,0,0,0,0,0,0,0,0,0,0,0,0],"sum_hessian":[3.0006743E3,1.8860797E3,1.1145946E3,1.2200842E3,6.659955E2,5.0448096E2,6.101136E2,5.445824E2,6.7550183E2,3.5593594E2,3.1005954E2,2.753234E2,2.2915758E2,3.112081E2,2.989055E2,4.2596014E2,1.1862228E2,2.5207715E2,4.234247E2,3.0628326E2,4.9652676E1,2.7997458E2,3.0084938E1,2.3266438E2,4.2659023E1,7.769104E1,1.5146654E2,2.7969785E2,3.1510273E1,1.2686034E2,1.7204514E2],"tree_param":{"num_deleted":"0","num_feature":"68","num_nodes":"31","size_leaf_vector":"1"}},{"base_weights":[5.1243547E-3,-4.893703E-1,8.384664E-1,-8.054617E-1,7.738114E-2,9.6359384E-1,5.3352095E-2,-5.293507E-1,-1.0306597E0,2.2123592E-1,-8.588903E-1,6.88416E-1,1.1715715E0,3.7762782E-1,-6.296908E-1,-3.559633E-3,-1.1655481E-2,-1.2617515E-2,-8.445137E-3,-5.3095442E-5,8.642763E-3,-2.8627985E-3,-1.1373371E-2,2.9252225E-3,9.462872E-3,1.3389138E-2,9.807337E-3,-2.246607E-4,8.703822E-3,-1.880366E-3,-1.2027462E-2],"categories":[],"categories_nodes":[],"categories_segments":[],"categories_sizes":[],"default_left":[0,0,0,0,0,0,0,0,0,0,0,0,0,0,0,0,0,0,0,0,0,0,0,0,0,0,0,0,0,0,0],"id":35,"left_children":[1,3,5,7,9,11,13,15,17,19,21,23,25,27,29,-1,-1,-1,-1,-1,-1,-1,-1,-1,-1,-1,-1,-1,-1,-1,-1],"loss_changes":[1.2512059E3,3.4143552E2,1.11031006E2,7.552423E1,9.220526E1,5.500714E1,3.490077E1,6.043425E1,2.7874573E1,8.638941E1,1.421431E1,4.2827698E1,1.6379517E1,2.1063538E1,1.2619303E1,0E0,0E0,0E0,0E0,0E0,0E0,0E0,0E0,0E0,0E0,0E0,0E0,0E0,0E0,0E0,0E0],"parents":[2147483647,0,0,1,1,2,2,3,3,4,4,5,5,6,6,7,7,8,8,9,9,10,10,11,11,12,12,13,13,14,14],"right_children":[2,4,6,8,10,12,14,16,18,20,22,24,26,28,30,-1,-1,-1,-1,-1,-1,-1,-1,-1,-1,-1,-1,-1,-1,-1,-1],"split_conditions":[1E0,1E0,1E0,1E0,1E0,1E0,1E0,1E0,-2.9024944E-1,3.8362068E-1,-1.875E-1,0E0,-2.5E-1,1E0,1.9866295E-1,-3.559633E-3,-1.1655481E-2,-1.2617515E-2,-8.445137E-3,-5.3095442E-5,8.642763E-3,-2.8627985E-3,-1.1373371E-2,2.9252225E-3,9.462872E-3,1.3389138E-2,9.807337E-3,-2.246607E-4,8.703822E-3,-1.880366E-3,-1.2027462E-2],"split_indices":[54,30,18,22,18,30,22,18,3,13,11,14,11,30,6,0,0,0,0,0,0,0,0,0,0,0,0,0,0,0,0],"split_type":[0,0,0,0,0,0,0,0,0,0,0,0,0,0,0,0,0,0,0,0,0,0,0,0,0,0,0,0,0,0,0],"sum_hessian":[3.034299E3,1.9045663E3,1.1297328E3,1.2223884E3,6.821778E2,9.742367E2,1.5549608E2,5.5062634E2,6.717621E2,5.919851E2,9.0192696E1,4.2122235E2,5.5301434E2,1.0574203E2,4.975406E1,4.3392517E2,1.167012E2,2.9712122E2,3.7464087E2,4.384939E2,1.5349123E2,3.017259E1,6.002011E1,1.6698888E2,2.5423347E2,2.9143985E2,2.6157446E2,5.8884743E1,4.6857285E1,2.8848574E1,2.0905485E1],"tree_param":{"num_deleted":"0","num_feature":"68","num_nodes":"31","size_leaf_vector":"1"}},{"base_weights":[-1.1524691E-2,-4.1813916E-1,5.3261936E-1,-2.230198E-2,-8.181292E-1,1.8503629E-1,9.965858E-1,-5.172878E-1,2.4672017E-1,-3.0473235E-1,-1.0050839E0,-6.306726E-1,3.9856562E-1,1.085606E0,2.912627E-1,-6.167232E-3,8.786098E-3,4.20016E-3,-8.35859E-3,-8.736452E-3,7.484398E-4,-1.1805645E-2,-5.59588E-3,-1.0108259E-2,-1.932764E-3,6.88962E-3,-1.1530082E-3,1.279513E-2,8.924353E-3,-3.2656621E-3,9.041527E-3],"categories":[],"categories_nodes":[],"categories_segments":[],"categories_sizes":[],"default_left":[0,0,0,0,0,0,0,0,0,0,0,0,0,0,0,0,0,0,0,0,0,0,0,0,0,0,0,0,0,0,0],"id":36,"left_children":[1,3,5,7,9,11,13,15,17,19,21,23,25,27,29,-1,-1,-1,-1,-1,-1,-1,-1,-1,-1,-1,-1,-1,-1,-1,-1],"loss_changes":[6.6774365E2,2.7345734E2,2.0796448E2,1.15866135E2,8.215045E1,1.2899184E2,3.437903E1,4.3066437E1,1.0612089E2,4.9897682E1,4.853723E1,2.5366535E1,8.758531E1,1.7222778E1,2.4261772E1,0E0,0E0,0E0,0E0,0E0,0E0,0E0,0E0,0E0,0E0,0E0,0E0,0E0,0E0,0E0,0E0],"parents":[2147483647,0,0,1,1,2,2,3,3,4,4,5,5,6,6,7,7,8,8,9,9,10,10,11,11,12,12,13,13,14,14],"right_children":[2,4,6,8,10,12,14,16,18,20,22,24,26,28,30,-1,-1,-1,-1,-1,-1,-1,-1,-1,-1,-1,-1,-1,-1,-1,-1],"split_conditions":[1E0,1E0,3.8362068E-1,-2.1768707E-1,-3.6066157E-1,-3.809524E-1,1E0,1E0,1E0,-2.3582767E-1,2.3706897E-1,2E-1,1E0,-7.6419175E-2,4E-1,-6.167232E-3,8.786098E-3,4.20016E-3,-8.35859E-3,-8.736452E-3,7.484398E-4,-1.1805645E-2,-5.59588E-3,-1.0108259E-2,-1.932764E-3,6.88962E-3,-1.1530082E-3,1.279513E-2,8.924353E-3,-3.2656621E-3,9.041527E-3],"split_indices":[30,22,13,3,1,3,18,23,58,3,13,0,15,1,0,0,0,0,0,0,0,0,0,0,0,0,0,0,0,0,0],"split_type":[0,0,0,0,0,0,0,0,0,0,0,0,0,0,0,0,0,0,0,0,0,0,0,0,0,0,0,0,0,0,0],"sum_hessian":[3.0159504E3,1.7262402E3,1.2897103E3,8.681548E2,8.580854E2,7.381327E2,5.515776E2,3.0536932E2,5.6278546E2,2.2976294E2,6.2832245E2,1.5273029E2,5.854024E2,4.8928482E2,6.229275E1,2.855842E2,1.9785128E1,4.856553E2,7.713015E1,9.142804E1,1.383349E2,4.4958228E2,1.7874019E2,8.101064E1,7.171964E1,3.738126E2,2.1158983E2,2.4137053E2,2.4791428E2,3.1254032E1,3.1038717E1],"tree_param":{"num_deleted":"0","num_feature":"68","num_nodes":"31","size_leaf_vector":"1"}},{"base_weights":[-2.8747155E-3,-4.083503E-1,5.393162E-1,-2.1463613E-1,-1.1093806E0,-1.5831128E-1,7.518352E-1,6.1192438E-2,-7.091367E-1,-1.1670369E0,3.9283827E-1,-4.8376974E-1,4.5528743E-1,8.6746E-1,-4.6387857E-1,-2.8340577E-3,4.532918E-3,8.6154183E-4,-8.856455E-3,-1.2878432E-2,-7.479132E-3,8.142248E-3,-5.9641376E-3,5.3736967E-5,-8.333691E-3,8.138341E-3,-5.7768926E-4,1.0823454E-2,4.4884277E-3,-1.7938003E-3,-1.04788495E-2],"categories":[],"categories_nodes":[],"categories_segments":[],"categories_sizes":[],"default_left":[0,0,0,0,0,0,0,0,0,0,0,0,0,0,0,0,0,0,0,0,0,0,0,0,0,0,0,0,0,0,0],"id":37,"left_children":[1,3,5,7,9,11,13,15,17,19,21,23,25,27,29,-1,-1,-1,-1,-1,-1,-1,-1,-1,-1,-1,-1,-1,-1,-1,-1],"loss_changes":[6.635796E2,2.3427655E2,1.9159192E2,1.8476318E2,3.2820435E1,6.060686E1,1.3957599E2,1.17717445E2,6.815852E1,1.7268799E1,6.5545406E0,3.387519E1,1.9420359E1,8.087384E1,1.4207077E1,0E0,0E0,0E0,0E0,0E0,0E0,0E0,0E0,0E0,0E0,0E0,0E0,0E0,0E0,0E0,0E0],"parents":[2147483647,0,0,1,1,2,2,3,3,4,4,5,5,6,6,7,7,8,8,9,9,10,10,11,11,12,12,13,13,14,14],"right_children":[2,4,6,8,10,12,14,16,18,20,22,24,26,28,30,-1,-1,-1,-1,-1,-1,-1,-1,-1,-1,-1,-1,-1,-1,-1,-1],"split_conditions":[1E0,9E0,-2.7210885E-1,1E0,1E0,4E-1,1E0,2E-1,-5.714286E-1,4E-1,5.0464463E-1,-9.6280135E-2,1.5E1,1E0,1E0,-2.8340577E-3,4.532918E-3,8.6154183E-4,-8.856455E-3,-1.2878432E-2,-7.479132E-3,8.142248E-3,-5.9641376E-3,5.3736967E-5,-8.333691E-3,8.138341E-3,-5.7768926E-4,1.0823454E-2,4.4884277E-3,-1.7938003E-3,-1.04788495E-2],"split_indices":[30,2,3,15,23,0,58,0,12,0,10,1,2,15,15,0,0,0,0,0,0,0,0,0,0,0,0,0,0,0,0],"split_type":[0,0,0,0,0,0,0,0,0,0,0,0,0,0,0,0,0,0,0,0,0,0,0,0,0,0,0,0,0,0,0],"sum_hessian":[3.0163936E3,1.7259183E3,1.2904751E3,1.3532766E3,3.7264175E2,3.0138525E2,9.890899E2,8.69277E2,4.8399963E2,3.59083E2,1.3558753E1,1.970694E2,1.04315865E2,9.034505E2,8.563941E1,4.6281085E2,4.0646613E2,8.800222E1,3.959974E2,2.7713126E2,8.1951744E1,9.632553E0,3.9261997E0,8.255161E1,1.14517784E2,6.105892E1,4.3256943E1,5.959505E2,3.0749997E2,5.8465237E1,2.7174171E1],"tree_param":{"num_deleted":"0","num_feature":"68","num_nodes":"31","size_leaf_vector":"1"}},{"base_weights":[6.9102095E-3,-4.8102862E-1,8.334479E-1,-7.9503506E-1,8.4328316E-2,5.217929E-1,1.0919777E0,-4.7766602E-1,-1.0523467E0,4.9160647E-1,-3.6937705E-1,7.6922476E-1,-3.9904427E-2,1.2265222E0,7.9334193E-1,-1.0356643E-3,-7.8665055E-3,-9.072751E-3,-1.3999174E-2,6.530499E-3,-4.5916555E-3,-4.8803473E-3,7.1520703E-3,1.0766465E-2,4.670902E-3,6.5925494E-3,-3.1893617E-3,1.01892315E-2,1.362116E-2,8.633984E-3,-4.0191608E-3],"categories":[],"categories_nodes":[],"categories_segments":[],"categories_sizes":[],"default_left":[0,0,0,0,0,0,0,0,0,0,0,0,0,0,0,0,0,0,0,0,0,0,0,0,0,0,0,0,0,0,0],"id":38,"left_children":[1,3,5,7,9,11,13,15,17,19,21,23,25,27,29,-1,-1,-1,-1,-1,-1,-1,-1,-1,-1,-1,-1,-1,-1,-1,-1],"loss_changes":[1.2132455E3,3.3587717E2,8.940411E1,9.8819214E1,1.2516393E2,7.066644E1,2.3514648E1,6.3077652E1,3.2555664E1,5.507482E1,4.1598045E1,3.2272415E1,3.0716076E1,1.0387634E1,1.643473E1,0E0,0E0,0E0,0E0,0E0,0E0,0E0,0E0,0E0,0E0,0E0,0E0,0E0,0E0,0E0,0E0],"parents":[2147483647,0,0,1,1,2,2,3,3,4,4,5,5,6,6,7,7,8,8,9,9,10,10,11,11,12,12,13,13,14,14],"right_children":[2,4,6,8,10,12,14,16,18,20,22,24,26,28,30,-1,-1,-1,-1,-1,-1,-1,-1,-1,-1,-1,-1,-1,-1,-1,-1],"split_conditions":[1E0,1E0,1E0,1E0,1E0,1E0,1E0,-6.731159E-2,1.1E1,1E0,8.405172E-1,-2.2090383E-1,-4.1429508E-1,0E0,1.2E1,-1.0356643E-3,-7.8665055E-3,-9.072751E-3,-1.3999174E-2,6.530499E-3,-4.5916555E-3,-4.8803473E-3,7.1520703E-3,1.0766465E-2,4.670902E-3,6.5925494E-3,-3.1893617E-3,1.01892315E-2,1.362116E-2,8.633984E-3,-4.0191608E-3],"split_indices":[54,30,30,22,22,15,15,1,2,18,13,1,1,14,2,0,0,0,0,0,0,0,0,0,0,0,0,0,0,0,0],"split_type":[0,0,0,0,0,0,0,0,0,0,0,0,0,0,0,0,0,0,0,0,0,0,0,0,0,0,0,0,0,0,0],"sum_hessian":[3.0063025E3,1.890614E3,1.1156884E3,1.2152451E3,6.753689E2,5.0723737E2,6.0845105E2,5.454016E2,6.6984357E2,3.5584955E2,3.1951935E2,3.5186758E2,1.5536978E2,4.173259E2,1.9112512E2,2.4730954E2,2.9809204E2,4.7513745E2,1.947061E2,3.0446393E2,5.1385593E1,2.8850574E2,3.1013622E1,1.7313713E2,1.7873047E2,4.393096E1,1.1143882E2,1.6824747E2,2.4907841E2,1.808054E2,1.0319724E1],"tree_param":{"num_deleted":"0","num_feature":"68","num_nodes":"31","size_leaf_vector":"1"}},{"base_weights":[7.074443E-3,-4.75078E-1,8.2628417E-1,-7.7087253E-1,6.204758E-2,4.9427447E-1,1.0957234E0,-4.5300105E-1,-1.0317307E0,4.3222326E-1,-3.5544127E-1,6.517315E-1,-2.5222567E-1,8.7717265E-1,1.2491763E0,-2.709476E-3,-1.0817313E-2,-8.819155E-3,-1.37965605E-2,-2.1781744E-3,6.502638E-3,-4.833741E-3,7.140678E-3,2.760208E-3,9.098712E-3,6.447884E-4,-9.202502E-3,1.08146155E-2,5.0424165E-3,1.2853704E-2,6.1157867E-3],"categories":[],"categories_nodes":[],"categories_segments":[],"categories_sizes":[],"default_left":[0,0,0,0,0,0,0,0,0,0,0,0,0,0,0,0,0,0,0,0,0,0,0,0,0,0,0,0,0,0,0],"id":39,"left_children":[1,3,5,7,9,11,13,15,17,19,21,23,25,27,29,-1,-1,-1,-1,-1,-1,-1,-1,-1,-1,-1,-1,-1,-1,-1,-1],"loss_changes":[1.177521E3,2.9821115E2,9.826495E1,9.988867E1,1.03294426E2,5.853901E1,1.932483E1,6.2353348E1,3.339258E1,5.0342705E1,4.3335423E1,3.955208E1,1.8513641E1,1.88461E1,7.414673E0,0E0,0E0,0E0,0E0,0E0,0E0,0E0,0E0,0E0,0E0,0E0,0E0,0E0,0E0,0E0,0E0],"parents":[2147483647,0,0,1,1,2,2,3,3,4,4,5,5,6,6,7,7,8,8,9,9,10,10,11,11,12,12,13,13,14,14],"right_children":[2,4,6,8,10,12,14,16,18,20,22,24,26,28,30,-1,-1,-1,-1,-1,-1,-1,-1,-1,-1,-1,-1,-1,-1,-1,-1],"split_conditions":[1E0,1E0,1E0,1E0,1E0,1E0,0E0,1E0,9E0,-3.628118E-1,8.405172E-1,0E0,1E0,1E0,9E0,-2.709476E-3,-1.0817313E-2,-8.819155E-3,-1.37965605E-2,-2.1781744E-3,6.502638E-3,-4.833741E-3,7.140678E-3,2.760208E-3,9.098712E-3,6.447884E-4,-9.202502E-3,1.08146155E-2,5.0424165E-3,1.2853704E-2,6.1157867E-3],"split_indices":[54,30,30,22,22,18,14,18,2,3,13,14,22,22,2,0,0,0,0,0,0,0,0,0,0,0,0,0,0,0,0],"split_type":[0,0,0,0,0,0,0,0,0,0,0,0,0,0,0,0,0,0,0,0,0,0,0,0,0,0,0,0,0,0,0],"sum_hessian":[2.9791929E3,1.8756715E3,1.1035214E3,1.2092845E3,6.66387E2,4.9562924E2,6.0789215E2,5.4630963E2,6.6297485E2,3.5318896E2,3.1319806E2,4.0940222E2,8.622703E1,2.5352817E2,3.5436398E2,4.2475085E2,1.2155878E2,4.6589664E2,1.9707823E2,8.87126E1,2.6447635E2,2.8022595E2,3.297211E1,1.675745E2,2.4182773E2,5.910795E1,2.7119078E1,1.6257233E2,9.095584E1,3.3436716E2,1.9996838E1],"tree_param":{"num_deleted":"0","num_feature":"68","num_nodes":"31","size_leaf_vector":"1"}},{"base_weights":[3.7705107E-4,-4.0177956E-1,5.436898E-1,-9.461636E-1,-1.4693862E-1,7.026699E-1,-4.2489374E-1,-5.697329E-1,-1.1728349E0,1.4114861E-1,-6.5328604E-1,3.487005E-1,1.016754E0,-6.011421E-1,8.9202476E-1,-1.0774805E-3,-9.180433E-3,-1.3040543E-2,-7.4264985E-3,5.433202E-3,-2.1989138E-3,5.0782104E-4,-8.249831E-3,8.029972E-3,-2.806538E-5,1.1101736E-2,3.0823268E-3,-2.2352843E-3,-1.0273061E-2,1.1717864E-2,8.585996E-4],"categories":[],"categories_nodes":[],"categories_segments":[],"categories_sizes":[],"default_left":[0,0,0,0,0,0,0,0,0,0,0,0,0,0,0,0,0,0,0,0,0,0,0,0,0,0,0,0,0,0,0],"id":40,"left_children":[1,3,5,7,9,11,13,15,17,19,21,23,25,27,29,-1,-1,-1,-1,-1,-1,-1,-1,-1,-1,-1,-1,-1,-1,-1,-1],"loss_changes":[6.5571564E2,2.3910852E2,1.9685986E2,4.623581E1,1.7161406E2,1.2159357E2,4.2454678E1,3.3459137E1,1.8345795E1,1.0905768E2,5.160884E1,8.259682E1,3.809204E1,2.5499317E1,4.798031E0,0E0,0E0,0E0,0E0,0E0,0E0,0E0,0E0,0E0,0E0,0E0,0E0,0E0,0E0,0E0,0E0],"parents":[2147483647,0,0,1,1,2,2,3,3,4,4,5,5,6,6,7,7,8,8,9,9,10,10,11,11,12,12,13,13,14,14],"right_children":[2,4,6,8,10,12,14,16,18,20,22,24,26,28,30,-1,-1,-1,-1,-1,-1,-1,-1,-1,-1,-1,-1,-1,-1,-1,-1],"split_conditions":[1E0,-3.0839002E-1,9E0,-1.6933848E-1,1E0,2.2844827E-1,8.146552E-1,1.1E1,4E-1,-1.0682867E-1,-5.714286E-1,-1.9991659E-1,1E0,5.494158E-2,1E0,-1.0774805E-3,-9.180433E-3,-1.3040543E-2,-7.4264985E-3,5.433202E-3,-2.1989138E-3,5.0782104E-4,-8.249831E-3,8.029972E-3,-2.806538E-5,1.1101736E-2,3.0823268E-3,-2.2352843E-3,-1.0273061E-2,1.1717864E-2,8.585996E-4],"split_indices":[30,3,2,1,15,13,13,2,0,1,12,1,18,1,15,0,0,0,0,0,0,0,0,0,0,0,0,0,0,0,0],"split_type":[0,0,0,0,0,0,0,0,0,0,0,0,0,0,0,0,0,0,0,0,0,0,0,0,0,0,0,0,0,0,0],"sum_hessian":[2.9990312E3,1.7235391E3,1.2754922E3,5.487028E2,1.1748363E3,1.0958907E3,1.7960141E2,2.0754631E2,3.411565E2,7.49263E2,4.2557324E2,5.162231E2,5.7966766E2,1.5888124E2,2.0720175E1,8.97779E1,1.1776842E2,2.5986E2,8.129649E1,3.5420276E2,3.9506024E2,8.357334E1,3.419999E2,2.246261E2,2.91597E2,5.1164023E2,6.802741E1,8.504734E1,7.383389E1,1.5045451E1,5.674724E0],"tree_param":{"num_deleted":"0","num_feature":"68","num_nodes":"31","size_leaf_vector":"1"}},{"base_weights":[8.448686E-3,-4.7451705E-1,8.238603E-1,-7.683852E-1,4.7139876E-2,9.308625E-1,1.1337599E-1,-4.6431538E-1,-1.0179778E0,3.1656936E-1,-4.637529E-1,6.777574E-1,1.1277834E0,4.6646404E-1,-6.201122E-1,-2.3165646E-3,-9.364523E-3,-7.6333936E-3,-1.170568E-2,-2.734938E-3,6.220522E-3,4.3352414E-3,-6.6406396E-3,1.0051853E-2,3.6292046E-3,1.244426E-2,8.4810965E-3,9.490128E-3,1.6282479E-3,-6.5926295E-5,-1.0561319E-2],"categories":[],"categories_nodes":[],"categories_segments":[],"categories_sizes":[],"default_left":[0,0,0,0,0,0,0,0,0,0,0,0,0,0,0,0,0,0,0,0,0,0,0,0,0,0,0,0,0,0,0],"id":41,"left_children":[1,3,5,7,9,11,13,15,17,19,21,23,25,27,29,-1,-1,-1,-1,-1,-1,-1,-1,-1,-1,-1,-1,-1,-1,-1,-1],"loss_changes":[1.1850796E3,2.8975073E2,8.499164E1,9.127734E1,9.401605E1,4.7716797E1,3.8529324E1,5.985041E1,2.4871582E1,8.075755E1,4.2681335E1,4.3770447E1,1.6741882E1,1.4533184E1,1.2942999E1,0E0,0E0,0E0,0E0,0E0,0E0,0E0,0E0,0E0,0E0,0E0,0E0,0E0,0E0,0E0,0E0],"parents":[2147483647,0,0,1,1,2,2,3,3,4,4,5,5,6,6,7,7,8,8,9,9,10,10,11,11,12,12,13,13,14,14],"right_children":[2,4,6,8,10,12,14,16,18,20,22,24,26,28,30,-1,-1,-1,-1,-1,-1,-1,-1,-1,-1,-1,-1,-1,-1,-1,-1],"split_conditions":[1E0,1E0,1E0,1E0,1E0,1E0,1E0,1E0,-1.4543028E-1,-2.993197E-1,-7.1428573E-1,-2.2649564E-1,1E0,-3.846154E-2,-6.731159E-2,-2.3165646E-3,-9.364523E-3,-7.6333936E-3,-1.170568E-2,-2.734938E-3,6.220522E-3,4.3352414E-3,-6.6406396E-3,1.0051853E-2,3.6292046E-3,1.244426E-2,8.4810965E-3,9.490128E-3,1.6282479E-3,-6.5926295E-5,-1.0561319E-2],"split_indices":[54,30,18,22,15,30,22,15,1,3,12,1,15,17,1,0,0,0,0,0,0,0,0,0,0,0,0,0,0,0,0],"split_type":[0,0,0,0,0,0,0,0,0,0,0,0,0,0,0,0,0,0,0,0,0,0,0,0,0,0,0,0,0,0,0],"sum_hessian":[3.00723E3,1.8888739E3,1.118356E3,1.2079303E3,6.809436E2,9.7170294E2,1.4665306E2,5.4582794E2,6.6210236E2,4.460766E2,2.3486702E2,4.271383E2,5.4456464E2,9.924321E1,4.740986E1,3.6664423E2,1.7918372E2,2.5034152E2,4.117608E2,1.5219849E2,2.938781E2,4.265102E1,1.92216E2,2.0830746E2,2.1883083E2,3.8185583E2,1.627088E2,3.7508537E1,6.1734673E1,2.0117636E1,2.7292221E1],"tree_param":{"num_deleted":"0","num_feature":"68","num_nodes":"31","size_leaf_vector":"1"}},{"base_weights":[-8.971201E-3,-4.8033804E-1,8.00065E-1,-7.8871554E-1,7.16706E-2,9.090848E-1,9.52506E-2,-6.294235E-1,-1.208369E0,2.1961291E-1,-9.333057E-1,6.3709944E-1,1.1127042E0,-2.981038E-1,4.5681205E-1,-3.9050465E-3,-1.0084842E-2,-1.2527549E-2,-4.2055748E-4,-3.9540185E-3,4.2084497E-3,-2.864364E-3,-1.2482989E-2,2.859265E-3,8.743315E-3,1.2781591E-2,9.299542E-3,2.259846E-3,-6.1862892E-3,9.470905E-4,8.907147E-3],"categories":[],"categories_nodes":[],"categories_segments":[],"categories_sizes":[],"default_left":[0,0,0,0,0,0,0,0,0,0,0,0,0,0,0,0,0,0,0,0,0,0,0,0,0,0,0,0,0,0,0],"id":42,"left_children":[1,3,5,7,9,11,13,15,17,19,21,23,25,27,29,-1,-1,-1,-1,-1,-1,-1,-1,-1,-1,-1,-1,-1,-1,-1,-1],"loss_changes":[1.1422012E3,3.222099E2,8.463806E1,8.041052E1,1.0119027E2,5.2169617E1,2.1302105E1,7.950815E1,1.7186584E1,7.354059E1,1.7440384E1,3.4000046E1,1.5281067E1,1.2214956E1,1.2161436E1,0E0,0E0,0E0,0E0,0E0,0E0,0E0,0E0,0E0,0E0,0E0,0E0,0E0,0E0,0E0,0E0],"parents":[2147483647,0,0,1,1,2,2,3,3,4,4,5,5,6,6,7,7,8,8,9,9,10,10,11,11,12,12,13,13,14,14],"right_children":[2,4,6,8,10,12,14,16,18,20,22,24,26,28,30,-1,-1,-1,-1,-1,-1,-1,-1,-1,-1,-1,-1,-1,-1,-1,-1],"split_conditions":[1E0,1E0,1E0,9E0,1E0,1E0,0E0,1E0,1E0,-3.809524E-1,-1.875E-1,0E0,-2.5E-1,-2.857143E-1,1E0,-3.9050465E-3,-1.0084842E-2,-1.2527549E-2,-4.2055748E-4,-3.9540185E-3,4.2084497E-3,-2.864364E-3,-1.2482989E-2,2.859265E-3,8.743315E-3,1.2781591E-2,9.299542E-3,2.259846E-3,-6.1862892E-3,9.470905E-4,8.907147E-3],"split_indices":[54,66,18,2,18,66,14,15,23,3,11,14,11,12,66,0,0,0,0,0,0,0,0,0,0,0,0,0,0,0,0],"split_type":[0,0,0,0,0,0,0,0,0,0,0,0,0,0,0,0,0,0,0,0,0,0,0,0,0,0,0,0,0,0,0],"sum_hessian":[2.993122E3,1.8914924E3,1.1016295E3,1.2132733E3,6.7821924E2,9.5380615E2,1.4782338E2,8.8126324E2,3.3201004E2,5.9187146E2,8.634778E1,4.101181E2,5.4368805E2,7.0882996E1,7.694039E1,5.418009E2,3.394623E2,3.1976666E2,1.2243357E1,1.4567816E2,4.4619327E2,2.8902668E1,5.7445107E1,1.6623979E2,2.4387831E2,2.822003E2,2.6148776E2,2.7011549E1,4.3871445E1,4.2604282E1,3.433611E1],"tree_param":{"num_deleted":"0","num_feature":"68","num_nodes":"31","size_leaf_vector":"1"}},{"base_weights":[-6.845355E-4,-4.6202934E-1,7.802023E-1,-7.612602E-1,7.368015E-2,8.933977E-1,7.014966E-2,-4.3743333E-1,-9.719516E-1,-5.5335724E-1,2.7847037E-1,1.1993304E0,7.2530127E-1,3.9764228E-1,-6.417109E-1,-2.777895E-3,-1.119601E-2,-1.0892928E-2,-5.4095797E-3,-7.382879E-3,3.0071521E-3,4.2787027E-3,-7.2283023E-3,1.227461E-2,4.865702E-3,3.79848E-3,9.788455E-3,-1.0157714E-3,6.6586677E-3,1.830958E-3,-1.123833E-2],"categories":[],"categories_nodes":[],"categories_segments":[],"categories_sizes":[],"default_left":[0,0,0,0,0,0,0,0,0,0,0,0,0,0,0,0,0,0,0,0,0,0,0,0,0,0,0,0,0,0,0],"id":43,"left_children":[1,3,5,7,9,11,13,15,17,19,21,23,25,27,29,-1,-1,-1,-1,-1,-1,-1,-1,-1,-1,-1,-1,-1,-1,-1,-1],"loss_changes":[1.0788319E3,3.0181564E2,8.932611E1,8.198694E1,8.6903275E1,4.8455322E1,3.615802E1,5.173819E1,3.637793E1,2.6543816E1,7.658823E1,6.1916504E0,5.406842E1,1.4274199E1,1.9654478E1,0E0,0E0,0E0,0E0,0E0,0E0,0E0,0E0,0E0,0E0,0E0,0E0,0E0,0E0,0E0,0E0],"parents":[2147483647,0,0,1,1,2,2,3,3,4,4,5,5,6,6,7,7,8,8,9,9,10,10,11,11,12,12,13,13,14,14],"right_children":[2,4,6,8,10,12,14,16,18,20,22,24,26,28,30,-1,-1,-1,-1,-1,-1,-1,-1,-1,-1,-1,-1,-1,-1,-1,-1],"split_conditions":[1E0,1E0,1E0,-1.4543028E-1,-3.809524E-1,-3.851074E-1,1E0,1E0,4E-1,4.525862E-1,1E0,6.528892E1,1E0,2E-1,-1.9233863E-1,-2.777895E-3,-1.119601E-2,-1.0892928E-2,-5.4095797E-3,-7.382879E-3,3.0071521E-3,4.2787027E-3,-7.2283023E-3,1.227461E-2,4.865702E-3,3.79848E-3,9.788455E-3,-1.0157714E-3,6.6586677E-3,1.830958E-3,-1.123833E-2],"split_indices":[54,30,18,1,3,1,22,18,0,13,18,6,30,0,1,0,0,0,0,0,0,0,0,0,0,0,0,0,0,0,0],"split_type":[0,0,0,0,0,0,0,0,0,0,0,0,0,0,0,0,0,0,0,0,0,0,0,0,0,0,0,0,0,0,0],"sum_hessian":[2.992608E3,1.8814583E3,1.1111497E3,1.2069E3,6.745582E2,9.5814545E2,1.5300417E2,4.7693707E2,7.299629E2,1.6565254E2,5.089057E2,3.3759442E2,6.20551E2,1.05095985E2,4.790818E1,3.8762955E2,8.930753E1,5.725536E2,1.5740932E2,1.3627972E2,2.9372818E1,4.433308E2,6.5574875E1,3.240818E2,1.3512643E1,2.6372488E2,3.5682617E2,3.6948586E1,6.81474E1,1.7901987E1,3.0006193E1],"tree_param":{"num_deleted":"0","num_feature":"68","num_nodes":"31","size_leaf_vector":"1"}},{"base_weights":[-1.8775931E-3,-3.8393337E-1,5.1673067E-1,-9.320243E-1,-1.08708836E-1,1.903747E-1,9.51296E-1,-6.170599E-1,-1.1738641E0,1.6238177E-1,-5.86794E-1,6.2391007E-1,-1.3602194E-1,1.0233618E0,2.234121E-1,-2.124961E-3,-9.704973E-3,-8.722678E-3,-1.3320179E-2,-1.0260022E-3,7.067012E-3,1.1226799E-3,-7.561209E-3,8.869766E-3,8.244427E-4,2.3925225E-3,-5.475665E-3,1.0807855E-2,2.9288405E-3,-5.159451E-3,4.883449E-3],"categories":[],"categories_nodes":[],"categories_segments":[],"categories_sizes":[],"default_left":[0,0,0,0,0,0,0,0,0,0,0,0,0,0,0,0,0,0,0,0,0,0,0,0,0,0,0,0,0,0,0],"id":44,"left_children":[1,3,5,7,9,11,13,15,17,19,21,23,25,27,29,-1,-1,-1,-1,-1,-1,-1,-1,-1,-1,-1,-1,-1,-1,-1,-1],"loss_changes":[5.9414484E2,2.603592E2,1.8021918E2,4.323108E1,1.492152E2,1.0305776E2,2.8375885E1,3.59336E1,1.4355286E1,1.0608833E2,4.9392532E1,4.4472908E1,6.437405E1,2.0485046E1,1.0125316E1,0E0,0E0,0E0,0E0,0E0,0E0,0E0,0E0,0E0,0E0,0E0,0E0,0E0,0E0,0E0,0E0],"parents":[2147483647,0,0,1,1,2,2,3,3,4,4,5,5,6,6,7,7,8,8,9,9,10,10,11,11,12,12,13,13,14,14],"right_children":[2,4,6,8,10,12,14,16,18,20,22,24,26,28,30,-1,-1,-1,-1,-1,-1,-1,-1,-1,-1,-1,-1,-1,-1,-1,-1],"split_conditions":[1E0,-2.9024944E-1,3.8362068E-1,1E0,1E0,-2.1198684E-1,9E0,9E0,-1.6933848E-1,4E-1,-5.714286E-1,1E0,1E0,3.2110313E1,5.905172E-1,-2.124961E-3,-9.704973E-3,-8.722678E-3,-1.3320179E-2,-1.0260022E-3,7.067012E-3,1.1226799E-3,-7.561209E-3,8.869766E-3,8.244427E-4,2.3925225E-3,-5.475665E-3,1.0807855E-2,2.9288405E-3,-5.159451E-3,4.883449E-3],"split_indices":[66,3,13,22,15,1,2,2,1,0,12,15,22,6,13,0,0,0,0,0,0,0,0,0,0,0,0,0,0,0,0],"split_type":[0,0,0,0,0,0,0,0,0,0,0,0,0,0,0,0,0,0,0,0,0,0,0,0,0,0,0,0,0,0,0],"sum_hessian":[2.9966514E3,1.725641E3,1.2710103E3,5.760634E2,1.1495775E3,7.2670056E2,5.443097E2,2.5174733E2,3.243161E2,7.340222E2,4.155553E2,3.11732E2,4.149686E2,4.9490457E2,4.9405125E1,1.1813024E2,1.3361708E2,1.1380583E2,2.1051027E2,4.94234E2,2.3978822E2,8.10947E1,3.344606E2,2.0937218E2,1.0235981E2,2.1726778E2,1.9770082E2,4.583904E2,3.651415E1,1.2783187E1,3.6621937E1],"tree_param":{"num_deleted":"0","num_feature":"68","num_nodes":"31","size_leaf_vector":"1"}},{"base_weights":[-1.0144871E-2,-4.674746E-1,7.6594347E-1,-7.5779957E-1,5.095841E-2,4.777909E-1,1.0136123E0,-4.6854067E-1,-9.619035E-1,3.2591784E-1,-4.539932E-1,7.0321804E-1,-5.524383E-2,1.2190608E0,7.840878E-1,-5.300445E-3,7.2643664E-3,-9.873031E-3,1.1509837E-2,-1.8499042E-3,5.8894926E-3,-5.6074657E-3,8.34547E-3,9.726486E-3,4.3239933E-3,6.3425587E-3,-3.43141E-3,